{"learner":{"attributes":{"best_iteration":"99","best_ntree_limit":"100"},"feature_names":[],"feature_types":[],"gradient_booster":{"model":{"gbtree_model_param":{"num_parallel_tree":"1","num_trees":"100","size_leaf_vector":"0"},"tree_info":[0,0,0,0,0,0,0,0,0,0,0,0,0,0,0,0,0,0,0,0,0,0,0,0,0,0,0,0,0,0,0,0,0,0,0,0,0,0,0,0,0,0,0,0,0,0,0,0,0,0,0,0,0,0,0,0,0,0,0,0,0,0,0,0,0,0,0,0,0,0,0,0,0,0,0,0,0,0,0,0,0,0,0,0,0,0,0,0,0,0,0,0,0,0,0,0,0,0,0,0],"trees":[{"base_weights":[3.2258064E-2,1.5384616E-1,-5E-1,-2.5E-1,3.1578946E-1,6E-1,-5.3846157E-1,2.1212122E-1,7.1428573E-1,-7.5E-1,-1.4285715E-1,5E-1,4.347826E-2],"categories":[],"categories_nodes":[],"categories_segments":[],"categories_sizes":[],"default_left":[1,1,0,1,1,0,1,1,0,0,0,0,0],"id":0,"left_children":[1,3,-1,5,7,-1,9,11,-1,-1,-1,-1,-1],"loss_changes":[2.0831265E0,1.7793522E0,0E0,2.2846155E0,6.3340175E-1,0E0,4.3681312E-1,7.793149E-1,0E0,0E0,0E0,0E0,0E0],"parents":[2147483647,0,0,1,1,3,3,4,4,6,6,7,7],"right_children":[2,4,-1,6,8,-1,10,12,-1,-1,-1,-1,-1],"split_conditions":[8.3935094E-1,2.462536E-1,-5E-2,5.0490852E-2,7.828871E-1,6.0000002E-2,2.0493738E-1,4.046654E-1,7.1428575E-2,-7.5E-2,-1.4285715E-2,5E-2,4.3478264E-3],"split_indices":[0,0,0,0,0,0,0,0,0,0,0,0,0],"split_type":[0,0,0,0,0,0,0,0,0,0,0,0,0],"sum_hessian":[3E1,2.5E1,5E0,7E0,1.8E1,1.5E0,5.5E0,1.55E1,2.5E0,3E0,2.5E0,5E0,1.05E1],"tree_param":{"num_deleted":"0","num_feature":"2","num_nodes":"13","size_leaf_vector":"0"}},{"base_weights":[2.8400194E-2,3.9869052E-1,-3.4292646E-2,1.3694751E-1,6.057017E-1,-3.223492E-1,5.9128404E-2,1.4208681E-2,-7.11005E-1,6.751399E-1,-2.9638179E-2,-3.8627386E-1,1.17066674E-1],"categories":[],"categories_nodes":[],"categories_segments":[],"categories_sizes":[],"default_left":[1,1,1,0,0,1,1,0,0,0,1,0,0],"id":1,"left_children":[1,3,5,-1,-1,7,9,-1,-1,-1,11,-1,-1],"loss_changes":[8.023757E-1,1.878863E-1,8.257322E-1,0E0,0E0,9.9060684E-1,1.3039334E0,0E0,0E0,0E0,1.1690981E0,0E0,0E0],"parents":[2147483647,0,0,1,1,2,2,5,5,6,6,10,10],"right_children":[2,4,6,-1,-1,8,10,-1,-1,-1,12,-1,-1],"split_conditions":[1.4318597E-1,6.3208304E-2,2.7674717E-1,1.3694751E-2,6.057017E-2,2.2433037E-1,4.1672975E-1,1.4208681E-3,-7.1100496E-2,6.7513995E-2,5.2887464E-1,-3.8627386E-2,1.1706668E-2],"split_indices":[1,1,1,0,0,1,1,0,0,0,1,0,0],"split_type":[0,0,0,0,0,0,0,0,0,0,0,0,0],"sum_hessian":[3.297453E1,3.998468E0,2.8976063E1,2.4995751E0,1.4988929E0,6.495915E0,2.2480148E1,3.9976108E0,2.4983041E0,1.9993705E0,2.0480778E1,5.4934187E0,1.4987358E1],"tree_param":{"num_deleted":"0","num_feature":"2","num_nodes":"13","size_leaf_vector":"0"}},{"base_weights":[3.340099E-2,3.8785443E-1,-2.3385067E-1,5.921573E-2,8.0859554E-1,-3.5813326E-1,7.922179E-2,6.116527E-1,-5.6102157E-1,-1.961978E-1,-5.270922E-1,4.2274353E-1,-2.4109414E-1,-3.9885417E-1,3.41488E-1,-6.9341743E-1,-2.4973597E-1],"categories":[],"categories_nodes":[],"categories_segments":[],"categories_sizes":[],"default_left":[1,1,1,1,0,1,1,0,0,1,1,0,0,0,0,0,0],"id":2,"left_children":[1,3,5,7,-1,9,11,-1,-1,13,15,-1,-1,-1,-1,-1,-1],"loss_changes":[3.3044899E0,2.0206716E0,8.052521E-1,3.59084E0,0E0,2.9259193E-1,8.163455E-1,0E0,0E0,1.115082E0,1.2623513E-1,0E0,0E0,0E0,0E0,0E0,0E0],"parents":[2147483647,0,0,1,1,2,2,3,3,5,5,6,6,9,9,10,10],"right_children":[2,4,6,8,-1,10,12,-1,-1,14,16,-1,-1,-1,-1,-1,-1],"split_conditions":[4.7117412E-1,3.2740122E-1,8.107996E-1,2.1238112E-1,8.085956E-2,6.306161E-1,9.485546E-1,6.116527E-2,-5.6102157E-2,5.438276E-1,6.644002E-1,4.2274352E-2,-2.4109414E-2,-3.9885417E-2,3.41488E-2,-6.934174E-2,-2.4973597E-2],"split_indices":[1,1,1,1,0,1,1,0,0,1,1,0,0,0,0,0,0],"split_type":[0,0,0,0,0,0,0,0,0,0,0,0,0,0,0,0,0],"sum_hessian":[3.2926407E1,1.3960051E1,1.8966358E1,8.478376E0,5.4816747E0,1.3473683E1,5.492674E0,4.491605E0,3.986771E0,7.9833803E0,5.490303E0,2.496037E0,2.9966369E0,5.985586E0,1.9977942E0,2.4943764E0,2.9959266E0],"tree_param":{"num_deleted":"0","num_feature":"2","num_nodes":"17","size_leaf_vector":"0"}},{"base_weights":[-1.5282567E-1,-3.0696657E-1,5.211683E-1,-2.393599E-1,-7.004387E-1,5.8379257E-1,1.8719785E-1,-3.41363E-1,6.226285E-1,-2.1458425E-1,-6.631018E-1],"categories":[],"categories_nodes":[],"categories_segments":[],"categories_sizes":[],"default_left":[1,1,1,1,0,0,0,1,0,0,0],"id":3,"left_children":[1,3,5,7,-1,-1,-1,9,-1,-1,-1],"loss_changes":[3.5727923E0,5.602925E-1,2.634883E-2,2.3994071E0,0E0,0E0,0E0,7.9121685E-1,0E0,0E0,0E0],"parents":[2147483647,0,0,1,1,2,2,3,3,7,7],"right_children":[2,4,6,8,-1,-1,-1,10,-1,-1,-1],"split_conditions":[8.9886355E-1,8.0793405E-1,9.7857773E-1,7.56791E-1,-7.004387E-2,5.837926E-2,1.8719785E-2,5.0561094E-1,6.226285E-2,-2.1458425E-2,-6.631018E-2],"split_indices":[0,0,0,0,0,0,0,0,0,0,0],"split_type":[0,0,0,0,0,0,0,0,0,0,0],"sum_hessian":[3.1850224E1,2.6365133E1,5.4850907E0,2.3871792E1,2.4933405E0,3.98905E0,1.4960407E0,2.1885912E1,1.9858801E0,1.6895369E1,4.9905434E0],"tree_param":{"num_deleted":"0","num_feature":"2","num_nodes":"11","size_leaf_vector":"0"}},{"base_weights":[3.7914086E-2,4.4207332E-1,-6.8237126E-2,1.7302229E-1,6.997918E-1,-6.779722E-1,1.4990863E-2,6.2862563E-1,-3.3888552E-1,2.0277525E-1,-2.6752043E-1,7.6254226E-2,5.2246404E-1,-3.7366602E-1,1.1160388E-2],"categories":[],"categories_nodes":[],"categories_segments":[],"categories_sizes":[],"default_left":[1,1,1,1,0,0,1,0,0,1,1,0,0,0,0],"id":4,"left_children":[1,3,5,7,-1,-1,9,-1,-1,11,13,-1,-1,-1,-1],"loss_changes":[1.5461073E0,3.9784658E-1,1.4742726E0,1.3768076E0,0E0,0E0,1.4529073E0,0E0,0E0,6.237458E-1,3.2832152E-1,0E0,0E0,0E0,0E0],"parents":[2147483647,0,0,1,1,2,2,3,3,6,6,9,9,10,10],"right_children":[2,4,6,8,-1,-1,10,-1,-1,12,14,-1,-1,-1,-1],"split_conditions":[2.2433037E-1,1.4318597E-1,3.1803894E-1,8.482331E-2,6.997918E-2,-6.779722E-2,7.2949255E-1,6.286257E-2,-3.3888552E-2,6.644002E-1,9.365899E-1,7.625423E-3,5.2246403E-2,-3.7366603E-2,1.1160388E-3],"split_indices":[1,1,1,1,0,0,1,0,0,1,1,0,0,0,0],"split_type":[0,0,0,0,0,0,0,0,0,0,0,0,0,0,0],"sum_hessian":[3.433499E1,6.483855E0,2.7851135E1,3.9898853E0,2.4939694E0,2.4867845E0,2.5364351E1,1.9904014E0,1.999484E0,1.5406163E1,9.958188E0,1.1925154E1,3.4810095E0,6.9646235E0,2.9935648E0],"tree_param":{"num_deleted":"0","num_feature":"2","num_nodes":"15","size_leaf_vector":"0"}},{"base_weights":[-1.4606819E-1,1.7957547E-1,-2.617709E-1,-1.74546E-1,7.0898604E-1,-7.1943486E-1,-6.705881E-2,3.011632E-1,-6.682645E-1,1.9010675E-1,-2.7121738E-1,-1.4460774E-1,6.249284E-1,-6.498069E-3,4.3774977E-1,-5.8130896E-1,-1.0956469E-2],"categories":[],"categories_nodes":[],"categories_segments":[],"categories_sizes":[],"default_left":[1,1,1,1,0,0,1,1,0,1,1,0,0,0,0,0,0],"id":5,"left_children":[1,3,5,7,-1,-1,9,11,-1,13,15,-1,-1,-1,-1,-1,-1],"loss_changes":[1.3193834E0,1.8946786E0,2.208417E0,1.7190982E0,0E0,0E0,1.0421894E0,6.648779E-1,0E0,4.380172E-1,8.757488E-1,0E0,0E0,0E0,0E0,0E0,0E0],"parents":[2147483647,0,0,1,1,2,2,3,3,6,6,7,7,9,9,10,10],"right_children":[2,4,6,8,-1,-1,10,12,-1,14,16,-1,-1,-1,-1,-1,-1],"split_conditions":[3.5624555E-1,2.4539931E-1,4.670831E-1,2.1056491E-1,7.089861E-2,-7.1943484E-2,8.0793405E-1,1.5747353E-1,-6.6826455E-2,7.603721E-1,8.7977207E-1,-1.4460774E-2,6.2492844E-2,-6.498069E-4,4.3774977E-2,-5.8130898E-2,-1.0956469E-3],"split_indices":[0,0,0,0,0,0,0,0,0,0,0,0,0,0,0,0,0],"split_type":[0,0,0,0,0,0,0,0,0,0,0,0,0,0,0,0,0],"sum_hessian":[3.276985E1,8.446175E0,2.4323677E1,5.462573E0,2.983601E0,6.4554667E0,1.786821E1,2.9806542E0,2.4819188E0,7.9380193E0,9.930191E0,1.4868565E0,1.4937979E0,4.9678125E0,2.9702067E0,3.9684095E0,5.961781E0],"tree_param":{"num_deleted":"0","num_feature":"2","num_nodes":"17","size_leaf_vector":"0"}},{"base_weights":[2.0775393E-2,5.8240116E-1,-2.8517576E-2,-1.97197E-1,1.5357162E-1,6.979756E-2,-6.297842E-1,4.3858325E-1,-1.3336223E-1,-1.8003176E-1,3.7991345E-1,6.527115E-1,2.4111424E-1,-3.479318E-1,3.3786175E-1],"categories":[],"categories_nodes":[],"categories_segments":[],"categories_sizes":[],"default_left":[1,0,1,1,1,1,0,1,1,0,0,0,0,0,0],"id":6,"left_children":[1,-1,3,5,7,9,-1,11,13,-1,-1,-1,-1,-1,-1],"loss_changes":[8.559955E-1,0E0,9.156955E-1,1.8229015E0,1.2381306E0,8.760279E-1,0E0,1.5847015E-1,9.218764E-1,0E0,0E0,0E0,0E0,0E0,0E0],"parents":[2147483647,0,0,2,2,3,3,4,4,5,5,7,7,8,8],"right_children":[2,-1,4,6,8,10,-1,12,14,-1,-1,-1,-1,-1,-1],"split_conditions":[5.0490852E-2,5.8240116E-2,6.114907E-1,4.2079854E-1,8.3900726E-1,2.462536E-1,-6.2978424E-2,7.06033E-1,9.7857773E-1,-1.8003177E-2,3.7991345E-2,6.5271154E-2,2.4111426E-2,-3.479318E-2,3.3786174E-2],"split_indices":[0,0,0,0,0,0,0,0,0,0,0,0,0,0,0],"split_type":[0,0,0,0,0,0,0,0,0,0,0,0,0,0,0],"sum_hessian":[2.932007E1,1.4931039E0,2.7826965E1,1.4402321E1,1.3424645E1,9.424273E0,4.9780474E0,6.4697356E0,6.95491E0,5.451785E0,3.972488E0,1.9978987E0,4.471837E0,4.9586535E0,1.9962565E0],"tree_param":{"num_deleted":"0","num_feature":"2","num_nodes":"15","size_leaf_vector":"0"}},{"base_weights":[-9.316446E-2,-6.4933347E-3,-6.8669754E-1,2.293908E-1,-1.3629651E-1,-3.1985454E-2,3.3782676E-1,-7.526349E-1,1.3538997E-1,5.3975046E-1,-5.831389E-1,6.3594246E-1,1.1138904E-1,6.9996244E-1,-8.23183E-2],"categories":[],"categories_nodes":[],"categories_segments":[],"categories_sizes":[],"default_left":[1,1,0,1,1,1,1,0,1,0,0,0,0,0,0],"id":7,"left_children":[1,3,-1,5,7,9,11,-1,13,-1,-1,-1,-1,-1,-1],"loss_changes":[1.5980903E0,8.944794E-1,0E0,3.0499744E-1,3.2521029E0,1.5616813E0,4.3023467E-1,0E0,1.7666632E0,0E0,0E0,0E0,0E0,0E0,0E0],"parents":[2147483647,0,0,1,1,3,3,4,4,5,5,6,6,8,8],"right_children":[2,4,-1,6,8,10,12,-1,14,-1,-1,-1,-1,-1,-1],"split_conditions":[9.365899E-1,3.984087E-1,-6.866976E-2,2.0158927E-1,5.164424E-1,8.482331E-2,2.2433037E-1,-7.526349E-2,6.306161E-1,5.3975046E-2,-5.8313888E-2,6.3594244E-2,1.1138904E-2,6.9996245E-2,-8.23183E-3],"split_indices":[1,1,0,1,1,1,1,0,1,0,0,0,0,0,0],"split_type":[0,0,0,0,0,0,0,0,0,0,0,0,0,0,0],"sum_hessian":[3.0152437E1,2.7192564E1,2.9598746E0,9.379854E0,1.781271E1,2.9570794E0,6.422775E0,4.90811E0,1.2904599E1,1.4615932E0,1.4954861E0,1.991892E0,4.430883E0,2.9748702E0,9.9297285E0],"tree_param":{"num_deleted":"0","num_feature":"2","num_nodes":"15","size_leaf_vector":"0"}},{"base_weights":[5.7211626E-2,2.7542028E-1,-1.4570977E-1,2.5200382E-2,5.5266726E-1,-4.0637186E-1,5.0390524E-1,3.631753E-1,-2.8922904E-1,6.6417795E-1,3.0898428E-1,-1.4403923E-1,-5.270694E-1,6.8580866E-1,1.7700247E-1,5.015361E-1,1.8573235E-1,-2.9451279E-2,-4.1277224E-1,-1.9770361E-1,6.2643284E-1,-6.4810574E-1,5.7312226E-1,-7.081676E-1,-3.3345821E-1],"categories":[],"categories_nodes":[],"categories_segments":[],"categories_sizes":[],"default_left":[1,1,1,1,1,1,1,1,1,0,1,1,1,0,0,0,0,0,0,0,0,0,0,0,0],"id":8,"left_children":[1,3,5,7,9,11,13,15,17,-1,19,21,23,-1,-1,-1,-1,-1,-1,-1,-1,-1,-1,-1,-1],"loss_changes":[1.6246581E0,1.206265E0,3.4552243E0,1.1988562E0,2.0210505E-2,3.7536263E-1,2.3202562E-1,3.95236E-2,1.7683852E-1,0E0,8.435433E-1,2.4924366E0,9.2933655E-2,0E0,0E0,0E0,0E0,0E0,0E0,0E0,0E0,0E0,0E0,0E0,0E0],"parents":[2147483647,0,0,1,1,2,2,3,3,4,4,5,5,6,6,7,7,8,8,10,10,11,11,12,12],"right_children":[2,4,6,8,10,12,14,16,18,-1,20,22,24,-1,-1,-1,-1,-1,-1,-1,-1,-1,-1,-1,-1],"split_conditions":[4.816252E-1,3.2740122E-1,7.796284E-1,2.0158927E-1,4.1672975E-1,6.306161E-1,9.3245E-1,3.5295073E-2,2.2620068E-1,6.64178E-2,4.507318E-1,5.2887464E-1,7.0700866E-1,6.8580866E-2,1.7700247E-2,5.015361E-2,1.8573236E-2,-2.945128E-3,-4.1277226E-2,-1.9770361E-2,6.264328E-2,-6.4810574E-2,5.7312228E-2,-7.081676E-2,-3.3345822E-2],"split_indices":[1,1,1,1,1,1,1,1,1,0,1,1,1,0,0,0,0,0,0,0,0,0,0,0,0],"split_type":[0,0,0,0,0,0,0,0,0,0,0,0,0,0,0,0,0,0,0,0,0,0,0,0,0],"sum_hessian":[3.4784893E1,1.6588938E1,1.8195957E1,9.292869E0,7.296069E0,1.3252678E1,4.9432783E0,4.4040256E0,4.888843E0,3.8216698E0,3.4743996E0,4.867247E0,8.385431E0,2.4706178E0,2.4726605E0,1.4482737E0,2.9557517E0,1.9747882E0,2.9140546E0,1.483599E0,1.9908005E0,2.9148185E0,1.9524287E0,2.959512E0,5.4259195E0],"tree_param":{"num_deleted":"0","num_feature":"2","num_nodes":"25","size_leaf_vector":"0"}},{"base_weights":[-8.242508E-2,-7.212843E-1,9.159595E-3,7.114482E-1,-1.4843248E-1,-4.7929615E-1,-2.8270919E-2,-3.0349335E-2,-6.780308E-1,4.062471E-1,-1.1913301E-1],"categories":[],"categories_nodes":[],"categories_segments":[],"categories_sizes":[],"default_left":[1,0,1,0,1,1,1,0,0,0,0],"id":9,"left_children":[1,-1,3,-1,5,7,9,-1,-1,-1,-1],"loss_changes":[1.8440711E0,0E0,3.2547889E0,0E0,9.432773E-1,5.4590356E-1,7.8739345E-1,0E0,0E0,0E0,0E0],"parents":[2147483647,0,0,2,2,4,4,5,5,6,6],"right_children":[2,-1,4,-1,6,8,10,-1,-1,-1,-1],"split_conditions":[3.1803894E-1,-7.212843E-2,4.1672975E-1,7.114482E-2,5.2887464E-1,4.816252E-1,6.306161E-1,-3.0349335E-3,-6.780308E-2,4.062471E-2,-1.1913301E-2],"split_indices":[1,0,1,0,1,1,1,0,0,0,0],"split_type":[0,0,0,0,0,0,0,0,0,0,0],"sum_hessian":[3.0404434E1,2.9500973E0,2.7454336E1,4.3875036E0,2.3066833E1,5.3491726E0,1.771766E1,1.995039E0,3.3541336E0,2.4638896E0,1.525377E1],"tree_param":{"num_deleted":"0","num_feature":"2","num_nodes":"11","size_leaf_vector":"0"}},{"base_weights":[-3.5599027E-2,3.2813042E-1,-2.156837E-1,5.811781E-2,6.1045754E-1,-3.2334846E-1,6.036248E-1,3.1999084E-1,-5.3741646E-1,1.2809309E-2,-3.8100594E-1,5.823496E-1,7.011534E-2,-6.456912E-1,-1.741724E-1],"categories":[],"categories_nodes":[],"categories_segments":[],"categories_sizes":[],"default_left":[1,1,1,1,0,1,0,1,0,0,1,0,0,0,0],"id":10,"left_children":[1,3,5,7,-1,9,-1,11,-1,-1,13,-1,-1,-1,-1],"loss_changes":[2.2243607E0,8.2474124E-1,2.1882045E0,1.2438643E0,0E0,4.045546E-1,0E0,3.132227E-1,0E0,0E0,8.529451E-1,0E0,0E0,0E0,0E0],"parents":[2147483647,0,0,1,1,2,2,3,3,5,5,7,7,10,10],"right_children":[2,4,6,8,-1,10,-1,12,-1,-1,14,-1,-1,-1,-1],"split_conditions":[3.6204216E-1,2.152178E-1,9.7857773E-1,2.0665506E-1,6.1045755E-2,4.2079854E-1,6.0362484E-2,5.0490852E-2,-5.3741645E-2,1.2809309E-3,7.454655E-1,5.823496E-2,7.011534E-3,-6.456912E-2,-1.741724E-2],"split_indices":[0,0,0,0,0,0,0,0,0,0,0,0,0,0,0],"split_type":[0,0,0,0,0,0,0,0,0,0,0,0,0,0,0],"sum_hessian":[3.1878155E1,1.0284252E1,2.1593904E1,5.873139E0,4.4111133E0,1.9620878E1,1.9730262E0,4.4007077E0,1.4724311E0,2.9865234E0,1.6634354E1,1.4976642E0,2.9030435E0,6.365992E0,1.0268362E1],"tree_param":{"num_deleted":"0","num_feature":"2","num_nodes":"15","size_leaf_vector":"0"}},{"base_weights":[1.49003565E-2,1.2087329E-1,-5.7911986E-1,1.33408075E-2,3.173438E-1,2.6149368E-1,-3.8593793E-1,6.827309E-1,-9.0223745E-2,-3.794325E-3,6.4471227E-1,-1.5552971E-1,-6.105174E-1,-5.2805716E-1,1.7583653E-1],"categories":[],"categories_nodes":[],"categories_segments":[],"categories_sizes":[],"default_left":[1,1,0,1,1,1,1,0,1,0,0,0,0,0,0],"id":11,"left_children":[1,3,-1,5,7,9,11,-1,13,-1,-1,-1,-1,-1,-1],"loss_changes":[2.2371585E0,6.304636E-1,0E0,2.128083E0,1.637565E0,1.3457913E0,3.3172202E-1,0E0,7.7849454E-1,0E0,0E0,0E0,0E0,0E0,0E0],"parents":[2147483647,0,0,1,1,3,3,4,4,5,5,6,6,8,8],"right_children":[2,4,-1,6,8,10,12,-1,14,-1,-1,-1,-1,-1,-1],"split_conditions":[8.8511753E-1,5.164424E-1,-5.791199E-2,3.278131E-1,6.306161E-1,2.482635E-1,4.816252E-1,6.827309E-2,6.859008E-1,-3.7943252E-4,6.447123E-2,-1.5552971E-2,-6.1051738E-2,-5.2805718E-2,1.7583653E-2],"split_indices":[1,1,0,1,1,1,1,0,1,0,0,0,0,0,0],"split_type":[0,0,0,0,0,0,0,0,0,0,0,0,0,0,0],"sum_hessian":[3.342663E1,2.9042055E1,4.3845725E0,1.945941E1,9.582645E0,1.2213666E1,7.2457438E0,4.6967983E0,4.885847E0,7.8024306E0,4.411235E0,4.411887E0,2.8338566E0,1.4745593E0,3.411288E0],"tree_param":{"num_deleted":"0","num_feature":"2","num_nodes":"15","size_leaf_vector":"0"}},{"base_weights":[-3.1799678E-2,2.4788985E-1,-1.5035503E-1,-1.6932262E-1,3.3298203E-1,-5.299244E-1,7.666243E-2,5.34519E-1,1.2509798E-1,-2.6171166E-1,-6.672396E-1,3.4768638E-1,-3.5162505E-2,1.774803E-1,6.4793855E-1,-9.0305395E-2,3.078406E-1,-7.181273E-1,4.9277982E-1,9.999936E-2,5.5482924E-1,-2.6171312E-1,1.3949451E-1],"categories":[],"categories_nodes":[],"categories_segments":[],"categories_sizes":[],"default_left":[1,1,1,0,1,1,1,1,1,1,0,1,1,0,0,0,0,0,0,0,0,0,0],"id":12,"left_children":[1,3,5,-1,7,9,11,13,15,17,-1,19,21,-1,-1,-1,-1,-1,-1,-1,-1,-1,-1],"loss_changes":[1.1924766E0,4.3798125E-1,2.2025898E0,0E0,3.213036E-1,1.7585993E-1,5.145224E-1,6.313324E-2,2.5871503E-1,2.0301216E0,0E0,1.9759941E-1,5.3668535E-1,0E0,0E0,0E0,0E0,0E0,0E0,0E0,0E0,0E0,0E0],"parents":[2147483647,0,0,1,1,2,2,4,4,5,5,6,6,7,7,8,8,9,9,11,11,12,12],"right_children":[2,4,6,-1,8,10,12,14,16,18,-1,20,22,-1,-1,-1,-1,-1,-1,-1,-1,-1,-1],"split_conditions":[3.7364078E-1,2.0282531E-1,5.2887464E-1,-1.6932262E-2,2.8955525E-1,4.816252E-1,6.306161E-1,2.2433037E-1,3.4423983E-1,4.7041702E-1,-6.6723965E-2,5.438276E-1,7.796284E-1,1.774803E-2,6.4793855E-2,-9.03054E-3,3.078406E-2,-7.1812734E-2,4.9277984E-2,9.999936E-3,5.5482924E-2,-2.6171312E-2,1.3949451E-2],"split_indices":[1,1,1,0,1,1,1,1,1,1,0,1,1,0,0,0,0,0,0,0,0,0,0],"split_type":[0,0,0,0,0,0,0,0,0,0,0,0,0,0,0,0,0,0,0,0,0,0,0],"sum_hessian":[3.3838688E1,9.748833E0,2.4089853E1,1.4837989E0,8.265034E0,8.516357E0,1.5573496E1,3.3987846E0,4.8662496E0,3.8676803E0,4.6486773E0,3.9327362E0,1.1640759E1,1.4377222E0,1.9610623E0,2.4656994E0,2.40055E0,2.439903E0,1.4277773E0,2.4663737E0,1.4663625E0,4.8505664E0,6.7901936E0],"tree_param":{"num_deleted":"0","num_feature":"2","num_nodes":"23","size_leaf_vector":"0"}},{"base_weights":[-6.540614E-2,1.2025913E-1,-2.3729359E-1,-1.1511706E-2,5.2930635E-1,-5.211992E-1,-4.7298465E-2,9.850852E-2,-2.2911984E-1,2.1936397E-1,-4.6087903E-1,-7.9455E-2,1.6883636E-1,-9.2054315E-2,3.2804167E-1],"categories":[],"categories_nodes":[],"categories_segments":[],"categories_sizes":[],"default_left":[1,1,1,1,0,0,1,1,0,1,0,0,0,0,0],"id":13,"left_children":[1,3,5,7,-1,-1,9,11,-1,13,-1,-1,-1,-1,-1],"loss_changes":[8.4296143E-1,7.0312583E-1,7.082882E-1,2.8017145E-1,0E0,0E0,1.1201547E0,1.1161171E-1,0E0,2.4326015E-1,0E0,0E0,0E0,0E0,0E0],"parents":[2147483647,0,0,1,1,2,2,3,3,6,6,7,7,9,9],"right_children":[2,4,6,8,-1,-1,10,12,-1,14,-1,-1,-1,-1,-1],"split_conditions":[3.7364078E-1,3.278131E-1,5.164424E-1,2.2620068E-1,5.2930634E-2,-5.2119922E-2,9.485546E-1,6.3208304E-2,-2.2911984E-2,6.644002E-1,-4.6087902E-2,-7.9455E-3,1.6883636E-2,-9.205432E-3,3.280417E-2],"split_indices":[1,1,1,1,0,0,1,1,0,1,0,0,0,0,0],"split_type":[0,0,0,0,0,0,0,0,0,0,0,0,0,0,0],"sum_hessian":[2.4519732E1,1.1931841E1,1.2587891E1,9.7597E0,2.172141E0,4.347817E0,8.240073E0,6.845835E0,2.913865E0,5.295388E0,2.9446852E0,1.9023037E0,4.9435315E0,1.4094733E0,3.8859153E0],"tree_param":{"num_deleted":"0","num_feature":"2","num_nodes":"15","size_leaf_vector":"0"}},{"base_weights":[-8.112848E-2,5.612259E-3,-3.7810087E-1,-1.8913446E-1,4.9593517E-1,-6.240317E-1,-1.0294637E-1,1.3108505E-1,-3.3493447E-1,-2.1032514E-2,-1.6190897E-1,-9.196575E-2,5.1643217E-1,-4.756701E-1,-5.9038106E-2],"categories":[],"categories_nodes":[],"categories_segments":[],"categories_sizes":[],"default_left":[1,1,1,1,0,0,1,1,1,0,0,0,0,0,0],"id":14,"left_children":[1,3,5,7,-1,-1,9,11,13,-1,-1,-1,-1,-1,-1],"loss_changes":[7.6710737E-1,2.3825934E0,3.9102417E-1,8.78657E-1,0E0,0E0,1.771475E-2,5.9006566E-1,4.5986915E-1,0E0,0E0,0E0,0E0,0E0,0E0],"parents":[2147483647,0,0,1,1,2,2,3,3,6,6,7,7,8,8],"right_children":[2,4,6,8,-1,-1,10,12,14,-1,-1,-1,-1,-1,-1],"split_conditions":[8.0759037E-1,7.123294E-1,9.107208E-1,2.1056491E-1,4.959352E-2,-6.2403172E-2,9.681456E-1,2.0493738E-1,4.8015597E-1,-2.1032514E-3,-1.6190898E-2,-9.196575E-3,5.164322E-2,-4.756701E-2,-5.9038107E-3],"split_indices":[0,0,0,0,0,0,0,0,0,0,0,0,0,0,0],"split_type":[0,0,0,0,0,0,0,0,0,0,0,0,0,0,0],"sum_hessian":[2.8697094E1,2.2969255E1,5.7278385E0,1.6879366E1,6.0898895E0,2.355014E0,3.3728244E0,5.3124957E0,1.156687E1,1.9795047E0,1.3933197E0,3.8470488E0,1.4654472E0,7.180158E0,4.3867116E0],"tree_param":{"num_deleted":"0","num_feature":"2","num_nodes":"15","size_leaf_vector":"0"}},{"base_weights":[-4.9272805E-2,3.9322287E-1,-3.3523923E-1,7.3008585E-1,1.5046786E-1,-5.3383315E-1,5.16779E-2,-9.4265155E-2,6.193313E-1,-5.7414502E-2,2.3723535E-1,1.3595463E-1,-5.085716E-1,8.7234735E-2,-1.6179417E-1],"categories":[],"categories_nodes":[],"categories_segments":[],"categories_sizes":[],"default_left":[1,1,1,0,1,0,1,1,0,1,0,0,0,0,0],"id":15,"left_children":[1,3,5,-1,7,-1,9,11,-1,13,-1,-1,-1,-1,-1],"loss_changes":[3.862583E0,8.742397E-1,1.4451938E0,0E0,1.0054536E0,0E0,1.587475E-1,6.6917646E-1,0E0,9.4438195E-2,0E0,0E0,0E0,0E0,0E0],"parents":[2147483647,0,0,1,1,2,2,4,4,6,6,7,7,9,9],"right_children":[2,4,6,-1,8,-1,10,12,-1,14,-1,-1,-1,-1,-1],"split_conditions":[5.0561094E-1,2.1350013E-1,8.7977207E-1,7.300859E-2,4.670831E-1,-5.3383317E-2,9.7857773E-1,3.6204216E-1,6.193313E-2,9.381615E-1,2.3723535E-2,1.3595464E-2,-5.0857164E-2,8.723474E-3,-1.6179418E-2],"split_indices":[0,0,0,0,0,0,0,0,0,0,0,0,0,0,0],"split_type":[0,0,0,0,0,0,0,0,0,0,0,0,0,0,0],"sum_hessian":[2.8483099E1,1.1034142E1,1.7448957E1,3.7805283E0,7.2536135E0,1.1279694E1,6.1692643E0,5.290879E0,1.9627342E0,4.320029E0,1.8492353E0,3.8328884E0,1.4579906E0,1.8795736E0,2.4404554E0],"tree_param":{"num_deleted":"0","num_feature":"2","num_nodes":"15","size_leaf_vector":"0"}},{"base_weights":[4.4820856E-2,5.669936E-1,-9.940229E-3,-2.8693792E-1,6.1814178E-2,-4.94368E-1,-1.4035888E-1,3.3413494E-1,-2.1798955E-2,1.8937506E-1,-3.149031E-1,4.200229E-2,5.780277E-1,-3.988771E-1,1.2020482E-1],"categories":[],"categories_nodes":[],"categories_segments":[],"categories_sizes":[],"default_left":[1,0,1,1,1,0,1,1,1,0,0,0,0,0,0],"id":16,"left_children":[1,-1,3,5,7,-1,9,11,13,-1,-1,-1,-1,-1,-1],"loss_changes":[9.975205E-1,0E0,6.612747E-1,1.3854665E-1,6.115675E-1,0E0,3.7063462E-1,4.2427623E-1,1.1854614E0,0E0,0E0,0E0,0E0,0E0,0E0],"parents":[2147483647,0,0,2,2,3,3,4,4,6,6,7,7,8,8],"right_children":[2,-1,4,6,8,-1,10,12,14,-1,-1,-1,-1,-1,-1],"split_conditions":[8.482331E-2,5.669936E-2,2.482635E-1,1.4318597E-1,4.1672975E-1,-4.94368E-2,2.1238112E-1,3.278131E-1,5.06439E-1,1.8937506E-2,-3.149031E-2,4.200229E-3,5.7802774E-2,-3.988771E-2,1.2020483E-2],"split_indices":[1,0,1,1,1,0,1,1,1,0,0,0,0,0,0],"split_type":[0,0,0,0,0,0,0,0,0,0,0,0,0,0,0],"sum_hessian":[3.3687645E1,2.3096921E0,3.1377953E1,5.8388834E0,2.5539068E1,1.4351864E0,4.403697E0,5.2955894E0,2.0243479E1,1.494828E0,2.908869E0,2.9428666E0,2.3527231E0,5.0430903E0,1.5200388E1],"tree_param":{"num_deleted":"0","num_feature":"2","num_nodes":"15","size_leaf_vector":"0"}},{"base_weights":[-5.266945E-3,4.3369132E-1,-1.527036E-1,8.229912E-2,6.689498E-1,-4.8809978E-1,8.843868E-2,-6.1448437E-1,-1.8958573E-1,3.938192E-1,-2.1009153E-1,2.187608E-1,-4.869079E-1,1.3120575E-1,6.022993E-1,-5.416674E-1,1.8654491E-1],"categories":[],"categories_nodes":[],"categories_segments":[],"categories_sizes":[],"default_left":[1,1,1,0,0,1,1,0,1,1,1,0,0,0,0,0,0],"id":17,"left_children":[1,3,5,-1,-1,7,9,-1,11,13,15,-1,-1,-1,-1,-1,-1],"loss_changes":[1.927139E0,5.641278E-1,1.8438354E0,0E0,0E0,2.406125E-1,1.3406794E0,0E0,6.239273E-1,3.1346726E-1,1.1044536E0,0E0,0E0,0E0,0E0,0E0,0E0],"parents":[2147483647,0,0,1,1,2,2,5,5,6,6,8,8,9,9,10,10],"right_children":[2,4,6,-1,-1,8,10,-1,12,14,16,-1,-1,-1,-1,-1,-1],"split_conditions":[3.416211E-1,2.424641E-1,5.5472445E-1,8.229912E-3,6.689498E-2,4.6385282E-1,8.483552E-1,-6.1448436E-2,5.0561094E-1,7.454655E-1,9.7857773E-1,2.187608E-2,-4.8690792E-2,1.3120576E-2,6.0229927E-2,-5.416674E-2,1.8654492E-2],"split_indices":[0,0,0,0,0,0,0,0,0,0,0,0,0,0,0,0,0],"split_type":[0,0,0,0,0,0,0,0,0,0,0,0,0,0,0,0,0],"sum_hessian":[2.7753935E1,6.4899826E0,2.1263952E1,3.143917E0,3.3460655E0,8.46549E0,1.2798463E1,5.2038236E0,3.2616663E0,6.1688566E0,6.6296062E0,1.4855797E0,1.7760866E0,3.4510543E0,2.7178023E0,3.411797E0,3.2178092E0],"tree_param":{"num_deleted":"0","num_feature":"2","num_nodes":"17","size_leaf_vector":"0"}},{"base_weights":[-4.669075E-2,-1.8803667E-1,1.7567426E-1,-8.806284E-2,-3.8801232E-1,3.5092327E-1,-1.5413299E-1,-2.1224351E-1,5.5588233E-1,6.9283046E-2,5.287651E-1,2.9581504E-2,-2.83422E-1,-6.439157E-2,-4.1790092E-1],"categories":[],"categories_nodes":[],"categories_segments":[],"categories_sizes":[],"default_left":[1,1,1,1,0,1,1,1,0,0,0,0,0,0,0],"id":18,"left_children":[1,3,5,7,-1,9,11,13,-1,-1,-1,-1,-1,-1,-1],"loss_changes":[9.641547E-1,3.375885E-1,7.493959E-1,1.2127789E0,0E0,3.7211967E-1,1.2403509E-1,3.440901E-1,0E0,0E0,0E0,0E0,0E0,0E0,0E0],"parents":[2147483647,0,0,1,1,2,2,3,3,5,5,6,6,7,7],"right_children":[2,4,6,8,-1,10,12,14,-1,-1,-1,-1,-1,-1,-1],"split_conditions":[5.812521E-1,4.1672975E-1,8.8511753E-1,3.7364078E-1,-3.8801234E-2,6.644002E-1,9.4926417E-1,2.1238112E-1,5.5588234E-2,6.9283047E-3,5.287651E-2,2.9581503E-3,-2.83422E-2,-6.439157E-3,-4.1790094E-2],"split_indices":[1,1,1,1,0,1,1,1,0,0,0,0,0,0,0],"split_type":[0,0,0,0,0,0,0,0,0,0,0,0,0,0,0],"sum_hessian":[2.862489E1,1.7595024E1,1.1029866E1,1.2690853E1,4.90417E0,7.160814E0,3.869053E0,1.12011795E1,1.489674E0,3.3094156E0,3.8513982E0,1.916699E0,1.9523537E0,7.280301E0,3.9208782E0],"tree_param":{"num_deleted":"0","num_feature":"2","num_nodes":"15","size_leaf_vector":"0"}},{"base_weights":[1.896922E-2,4.8382393E-1,-2.552014E-1,6.495013E-1,3.4826905E-1,-4.953161E-2,-3.873702E-1,1.4686435E-1,6.471332E-1,-4.0998247E-1,2.7538052E-1,-5.2747065E-1,-7.006029E-2,2.7818707E-1,-1.9762611E-1,2.367096E-1,-5.243384E-1],"categories":[],"categories_nodes":[],"categories_segments":[],"categories_sizes":[],"default_left":[1,1,1,0,1,1,1,1,0,0,0,0,1,0,0,0,0],"id":19,"left_children":[1,3,5,-1,7,9,11,13,-1,-1,-1,-1,15,-1,-1,-1,-1],"loss_changes":[4.488852E0,6.6934824E-2,5.8426344E-1,0E0,4.6685433E-1,1.2643106E0,5.5732274E-1,3.6578703E-1,0E0,0E0,0E0,0E0,8.554233E-1,0E0,0E0,0E0,0E0],"parents":[2147483647,0,0,1,1,2,2,4,4,5,5,6,6,7,7,12,12],"right_children":[2,4,6,-1,8,10,12,14,-1,-1,-1,-1,16,-1,-1,-1,-1],"split_conditions":[3.5331202E-1,8.482331E-2,6.306161E-1,6.495013E-2,3.1803894E-1,5.06439E-1,9.3245E-1,2.8955525E-1,6.471332E-2,-4.0998247E-2,2.7538052E-2,-5.2747067E-2,9.922863E-1,2.7818708E-2,-1.9762611E-2,2.367096E-2,-5.2433845E-2],"split_indices":[1,1,1,0,1,1,1,1,0,0,0,0,1,0,0,0,0],"split_type":[0,0,0,0,0,0,0,0,0,0,0,0,0,0,0,0,0],"sum_hessian":[3.325184E1,1.2052394E1,2.1199446E1,3.7174437E0,8.3349495E0,8.831454E0,1.2367991E1,5.8703356E0,2.4646144E0,4.0626297E0,4.7688246E0,8.120336E0,4.247656E0,4.3894916E0,1.480844E0,2.821354E0,1.4263021E0],"tree_param":{"num_deleted":"0","num_feature":"2","num_nodes":"17","size_leaf_vector":"0"}},{"base_weights":[7.6025315E-2,1.8178116E-1,-1.9682962E-1,-2.4951664E-1,2.9540616E-1,-6.6503936E-1,3.3355755E-1,-5.42433E-2,-3.350693E-1,6.625958E-1,1.2268988E-1,-3.7814095E-3,5.485969E-1,-3.250853E-1,3.306156E-1],"categories":[],"categories_nodes":[],"categories_segments":[],"categories_sizes":[],"default_left":[1,1,1,1,1,0,1,0,0,0,1,0,0,0,0],"id":20,"left_children":[1,3,5,7,9,-1,11,-1,-1,-1,13,-1,-1,-1,-1],"loss_changes":[8.8585615E-1,1.1396129E0,2.3845217E0,6.664866E-2,1.0395203E0,0E0,3.4659243E-1,0E0,0E0,0E0,1.3407918E0,0E0,0E0,0E0,0E0],"parents":[2147483647,0,0,1,1,2,2,3,3,4,4,6,6,10,10],"right_children":[2,4,6,8,10,-1,12,-1,-1,-1,14,-1,-1,-1,-1],"split_conditions":[8.0793405E-1,2.0493738E-1,9.107208E-1,1.0019867E-1,3.4381837E-1,-6.6503935E-2,9.7857773E-1,-5.42433E-3,-3.350693E-2,6.6259585E-2,4.670831E-1,-3.7814095E-4,5.4859694E-2,-3.2508533E-2,3.306156E-2],"split_indices":[0,0,0,0,0,0,0,0,0,0,0,0,0,0,0],"split_type":[0,0,0,0,0,0,0,0,0,0,0,0,0,0,0],"sum_hessian":[2.8459248E1,2.0750387E1,7.7088614E0,4.0774055E0,1.6672981E1,3.9595845E0,3.7492769E0,1.7399701E0,2.3374352E0,4.426356E0,1.2246625E1,1.8420346E0,1.9072423E0,3.704782E0,8.541843E0],"tree_param":{"num_deleted":"0","num_feature":"2","num_nodes":"15","size_leaf_vector":"0"}},{"base_weights":[-2.8372904E-2,2.0015724E-2,-5.80258E-1,-1.4574853E-1,3.21066E-1,1.343122E-1,-5.37642E-1,5.8550423E-1,1.4282656E-1,4.8284397E-1,2.9328814E-2,-6.565402E-1,-1.7558214E-1,-4.6900988E-1,4.340449E-1],"categories":[],"categories_nodes":[],"categories_segments":[],"categories_sizes":[],"default_left":[1,1,0,1,1,1,1,0,1,0,0,0,0,0,0],"id":21,"left_children":[1,3,-1,5,7,9,11,-1,13,-1,-1,-1,-1,-1,-1],"loss_changes":[8.227924E-1,1.4886833E0,0E0,2.1928086E0,4.1467917E-1,4.2743006E-1,2.3998952E-1,0E0,1.5645099E0,0E0,0E0,0E0,0E0,0E0,0E0],"parents":[2147483647,0,0,1,1,3,3,4,4,5,5,6,6,8,8],"right_children":[2,4,-1,6,8,10,12,-1,14,-1,-1,-1,-1,-1,-1],"split_conditions":[9.864764E-1,7.454655E-1,-5.8025803E-2,4.2079854E-1,8.0793405E-1,5.0490852E-2,7.123294E-1,5.8550425E-2,8.7977207E-1,4.8284397E-2,2.9328815E-3,-6.5654024E-2,-1.7558215E-2,-4.6900988E-2,4.340449E-2],"split_indices":[0,0,0,0,0,0,0,0,0,0,0,0,0,0,0],"split_type":[0,0,0,0,0,0,0,0,0,0,0,0,0,0,0],"sum_hessian":[2.9375553E1,2.7893606E1,1.4819461E0,1.8321365E1,9.572241E0,1.1068619E1,7.2527466E0,2.9341571E0,6.638084E0,1.7290723E0,9.339546E0,4.8475084E0,2.4052386E0,1.9437805E0,4.6943035E0],"tree_param":{"num_deleted":"0","num_feature":"2","num_nodes":"15","size_leaf_vector":"0"}},{"base_weights":[-3.719724E-2,2.8340757E-1,-1.8398066E-1,-2.281991E-2,5.319535E-1,-3.850189E-1,7.928428E-2,-1.7388025E-1,1.22478016E-1,-2.1068746E-1,-4.8956892E-1,4.854064E-1,-6.0647476E-2,-3.615564E-1,1.9765143E-1,-3.3155194E-1,1.2057599E-1],"categories":[],"categories_nodes":[],"categories_segments":[],"categories_sizes":[],"default_left":[1,1,1,1,0,1,1,0,0,1,0,0,1,0,0,0,0],"id":22,"left_children":[1,3,5,7,-1,9,11,-1,-1,13,-1,-1,15,-1,-1,-1,-1],"loss_changes":[1.5084705E0,7.818112E-1,1.1861272E0,1.4178121E-1,0E0,1.2561226E-1,6.1382604E-1,0E0,0E0,4.694785E-1,0E0,0E0,4.5909256E-1,0E0,0E0,0E0,0E0],"parents":[2147483647,0,0,1,1,2,2,3,3,5,5,6,6,9,9,12,12],"right_children":[2,4,6,8,-1,10,12,-1,-1,14,-1,-1,16,-1,-1,-1,-1],"split_conditions":[3.5624555E-1,2.424641E-1,7.8371406E-1,1.4754191E-1,5.3195354E-2,5.0561094E-1,8.0759037E-1,-1.7388025E-2,1.2247802E-2,4.670831E-1,-4.8956893E-2,4.854064E-2,8.7977207E-1,-3.615564E-2,1.9765144E-2,-3.3155195E-2,1.2057599E-2],"split_indices":[0,0,0,0,0,0,0,0,0,0,0,0,0,0,0,0,0],"split_type":[0,0,0,0,0,0,0,0,0,0,0,0,0,0,0,0,0],"sum_hessian":[2.9946568E1,9.112414E0,2.0834152E1,4.4893637E0,4.6230507E0,1.15509615E1,9.283191E0,2.104591E0,2.3847728E0,5.4607105E0,6.090251E0,1.7462354E0,7.536956E0,4.071121E0,1.3895891E0,2.6884975E0,4.8484583E0],"tree_param":{"num_deleted":"0","num_feature":"2","num_nodes":"17","size_leaf_vector":"0"}},{"base_weights":[2.0525906E-2,-5.299664E-2,5.678934E-1,4.0921308E-2,-4.6070132E-1,-7.3579796E-2,4.7747195E-1,1.7095971E-1,-4.1145107E-1],"categories":[],"categories_nodes":[],"categories_segments":[],"categories_sizes":[],"default_left":[1,1,0,1,0,1,0,0,0],"id":23,"left_children":[1,3,-1,5,-1,7,-1,-1,-1],"loss_changes":[1.1968889E0,1.0325819E0,0E0,1.1566149E0,0E0,1.6104891E0,0E0,0E0,0E0],"parents":[2147483647,0,0,1,1,3,3,5,5],"right_children":[2,4,-1,6,-1,8,-1,-1,-1],"split_conditions":[9.715679E-1,8.4011E-1,5.678934E-2,7.193694E-1,-4.6070132E-2,3.817746E-1,4.7747195E-2,1.7095972E-2,-4.114511E-2],"split_indices":[0,0,0,0,0,0,0,0,0],"split_type":[0,0,0,0,0,0,0,0,0],"sum_hessian":[2.7993061E1,2.5474499E1,2.5185623E0,2.1436146E1,4.038353E0,1.7640692E1,3.7954538E0,1.05204E1,7.120291E0],"tree_param":{"num_deleted":"0","num_feature":"2","num_nodes":"9","size_leaf_vector":"0"}},{"base_weights":[-2.1820653E-2,2.5882129E-2,-5.6855804E-1,-5.7186387E-2,1.7339793E-1,2.0112346E-1,-2.0517313E-1,5.549565E-1,-7.554056E-4,-6.2998034E-2,6.138224E-1,-6.936133E-2,-3.1573984E-1,-6.504594E-2,1.4964746E-1],"categories":[],"categories_nodes":[],"categories_segments":[],"categories_sizes":[],"default_left":[1,1,0,1,1,1,1,0,1,0,0,0,0,0,0],"id":24,"left_children":[1,3,-1,5,7,9,11,-1,13,-1,-1,-1,-1,-1,-1],"loss_changes":[7.8910387E-1,3.5627952E-1,0E0,7.6125246E-1,6.9353783E-1,8.415011E-1,1.6534609E-1,0E0,8.8641815E-2,0E0,0E0,0E0,0E0,0E0,0E0],"parents":[2147483647,0,0,1,1,3,3,4,4,5,5,6,6,8,8],"right_children":[2,4,-1,6,8,10,12,-1,14,-1,-1,-1,-1,-1,-1],"split_conditions":[9.864764E-1,7.229505E-1,-5.6855805E-2,3.416211E-1,8.3935094E-1,2.4539931E-1,5.2926946E-1,5.549565E-2,9.715679E-1,-6.2998035E-3,6.138224E-2,-6.936133E-3,-3.1573985E-2,-6.504594E-3,1.4964746E-2],"split_indices":[0,0,0,0,0,0,0,0,0,0,0,0,0,0,0],"split_type":[0,0,0,0,0,0,0,0,0,0,0,0,0,0,0],"sum_hessian":[2.8691786E1,2.7265532E1,1.4262543E0,1.7834805E1,9.430728E0,6.3652463E0,1.1469558E1,2.2702222E0,7.1605053E0,4.397963E0,1.9672832E0,5.8774576E0,5.5921E0,5.413848E0,1.7466574E0],"tree_param":{"num_deleted":"0","num_feature":"2","num_nodes":"15","size_leaf_vector":"0"}},{"base_weights":[-6.746797E-2,-2.1133188E-2,-4.1523218E-1,-6.594732E-2,2.0151821E-1,2.1264367E-2,-4.6014497E-1,2.8997087E-1,4.4998273E-2,-1.9357112E-1,1.2707537E-1],"categories":[],"categories_nodes":[],"categories_segments":[],"categories_sizes":[],"default_left":[1,1,0,1,1,1,0,0,0,0,0],"id":25,"left_children":[1,3,-1,5,7,9,-1,-1,-1,-1,-1],"loss_changes":[4.5769107E-1,2.7868983E-1,0E0,7.969017E-1,5.206588E-2,4.7250003E-1,0E0,0E0,0E0,0E0,0E0],"parents":[2147483647,0,0,1,1,3,3,4,4,5,5],"right_children":[2,4,-1,6,8,10,-1,-1,-1,-1,-1],"split_conditions":[9.4926417E-1,7.796284E-1,-4.152322E-2,6.306161E-1,9.3245E-1,2.482635E-1,-4.60145E-2,2.8997088E-2,4.4998275E-3,-1.9357113E-2,1.2707538E-2],"split_indices":[1,1,0,1,1,1,0,0,0,0,0],"split_type":[0,0,0,0,0,0,0,0,0,0,0],"sum_hessian":[2.7948643E1,2.5598734E1,2.3499093E0,2.1895525E1,3.7032094E0,1.870362E1,3.1919036E0,1.821327E0,1.8818825E0,5.898361E0,1.2805259E1],"tree_param":{"num_deleted":"0","num_feature":"2","num_nodes":"11","size_leaf_vector":"0"}},{"base_weights":[1.6840656E-1,9.060196E-2,6.0070586E-1,3.6228007E-1,-5.8012705E-2,-1.4820127E-1,5.338248E-1,-2.102875E-1,2.1556775E-1,-9.3918756E-2,-2.8620303E-1,4.289075E-1,-2.5467435E-1],"categories":[],"categories_nodes":[],"categories_segments":[],"categories_sizes":[],"default_left":[1,1,0,1,1,0,0,1,1,0,0,0,0],"id":26,"left_children":[1,3,-1,5,7,-1,-1,9,11,-1,-1,-1,-1],"loss_changes":[9.0737885E-1,1.0470144E0,0E0,8.780596E-1,7.655391E-1,0E0,0E0,7.570696E-2,7.789309E-1,0E0,0E0,0E0,0E0],"parents":[2147483647,0,0,1,1,3,3,4,4,7,7,8,8],"right_children":[2,4,-1,6,8,-1,-1,10,12,-1,-1,-1,-1],"split_conditions":[9.107208E-1,3.416211E-1,6.0070585E-2,1.4754191E-1,7.454655E-1,-1.4820128E-2,5.3382482E-2,4.8015597E-1,8.0793405E-1,-9.391876E-3,-2.8620303E-2,4.2890754E-2,-2.5467435E-2],"split_indices":[0,0,0,0,0,0,0,0,0,0,0,0,0],"split_type":[0,0,0,0,0,0,0,0,0,0,0,0,0],"sum_hessian":[2.7595438E1,2.4411478E1,3.183961E0,8.123475E0,1.6288002E1,2.0774617E0,6.046014E0,1.061246E1,5.6755414E0,5.073139E0,5.539321E0,3.9647236E0,1.7108178E0],"tree_param":{"num_deleted":"0","num_feature":"2","num_nodes":"13","size_leaf_vector":"0"}},{"base_weights":[9.8074675E-2,-4.360788E-2,3.5608533E-1,8.809655E-2,-2.632865E-1,5.643569E-1,1.4388256E-1,-1.6092515E-1,4.007092E-1,-5.741906E-1,1.33626945E-2,-1.6685924E-1,2.746976E-1,-2.4194355E-1,2.5606625E-2,4.730799E-1,1.5435901E-1,3.50465E-1,-3.0667618E-1,4.505686E-1,6.104555E-2],"categories":[],"categories_nodes":[],"categories_segments":[],"categories_sizes":[],"default_left":[1,1,1,1,1,0,1,1,1,0,1,0,1,0,0,0,0,0,0,0,0],"id":27,"left_children":[1,3,5,7,9,-1,11,13,15,-1,17,-1,19,-1,-1,-1,-1,-1,-1,-1,-1],"loss_changes":[9.7649646E-1,5.3993964E-1,3.3545804E-1,9.9205226E-1,6.050263E-1,0E0,2.90218E-1,1.17206275E-1,2.6273489E-2,0E0,6.0938954E-1,0E0,1.4566818E-1,0E0,0E0,0E0,0E0,0E0,0E0,0E0,0E0],"parents":[2147483647,0,0,1,1,2,2,3,3,4,4,6,6,7,7,8,8,10,10,12,12],"right_children":[2,4,6,8,10,-1,12,14,16,-1,18,-1,20,-1,-1,-1,-1,-1,-1,-1,-1],"split_conditions":[7.384255E-1,4.8015597E-1,8.4759605E-1,3.416211E-1,6.114907E-1,5.6435693E-2,9.107208E-1,2.0493738E-1,4.0106606E-1,-5.741906E-2,7.024518E-1,-1.6685924E-2,9.611358E-1,-2.4194356E-2,2.5606626E-3,4.730799E-2,1.54359015E-2,3.50465E-2,-3.0667618E-2,4.505686E-2,6.104555E-3],"split_indices":[0,0,0,0,0,0,0,0,0,0,0,0,0,0,0,0,0,0,0,0,0],"split_type":[0,0,0,0,0,0,0,0,0,0,0,0,0,0,0,0,0,0,0,0,0],"sum_hessian":[2.5287848E1,1.6860273E1,8.427573E0,1.0915221E1,5.9450526E0,3.4156673E0,5.011906E0,6.34563E0,4.5695915E0,2.2928178E0,3.6522348E0,1.4031909E0,3.6087155E0,4.216965E0,2.1286647E0,2.8206186E0,1.7489729E0,1.7323995E0,1.9198354E0,1.3711457E0,2.2375698E0],"tree_param":{"num_deleted":"0","num_feature":"2","num_nodes":"21","size_leaf_vector":"0"}},{"base_weights":[7.315944E-2,-4.343183E-2,4.1076943E-1,2.496352E-1,-2.1665856E-1,6.7564046E-1,1.325373E-1,3.9345527E-1,1.4307807E-1,-6.119611E-1,-9.7133584E-2,-2.1323232E-1,5.821405E-1,-1.619183E-1,2.4151996E-1,1.5972547E-1,-3.8411152E-1],"categories":[],"categories_nodes":[],"categories_segments":[],"categories_sizes":[],"default_left":[1,1,1,1,1,0,1,0,1,0,1,0,0,0,0,0,0],"id":28,"left_children":[1,3,5,7,9,-1,11,-1,13,-1,15,-1,-1,-1,-1,-1,-1],"loss_changes":[1.2236084E0,1.2559274E0,4.9698377E-1,8.5605025E-2,6.688622E-1,0E0,9.209457E-1,0E0,2.4597886E-1,0E0,1.0214133E0,0E0,0E0,0E0,0E0,0E0,0E0],"parents":[2147483647,0,0,1,1,2,2,3,3,4,4,6,6,8,8,10,10],"right_children":[2,4,6,8,10,-1,12,-1,14,-1,16,-1,-1,-1,-1,-1,-1],"split_conditions":[7.796284E-1,3.7163305E-1,8.8511753E-1,2.1548748E-1,4.7041702E-1,6.756405E-2,9.4926417E-1,3.934553E-2,2.3942062E-1,-6.1196115E-2,6.306161E-1,-2.1323232E-2,5.821405E-2,-1.619183E-2,2.4151996E-2,1.5972547E-2,-3.841115E-2],"split_indices":[1,1,1,1,1,0,1,0,1,0,1,0,0,0,0,0,0],"split_type":[0,0,0,0,0,0,0,0,0,0,0,0,0,0,0,0,0],"sum_hessian":[2.9632498E1,2.267366E1,6.9588366E0,8.259334E0,1.4414327E1,2.8332806E0,4.125556E0,2.3691964E0,5.890137E0,2.3899965E0,1.202433E1,2.62925E0,1.4963062E0,1.2798979E0,4.610239E0,6.579122E0,5.4452085E0],"tree_param":{"num_deleted":"0","num_feature":"2","num_nodes":"17","size_leaf_vector":"0"}},{"base_weights":[6.200837E-2,3.0928287E-1,-7.770365E-2,8.0333255E-2,6.1787444E-1,-4.35832E-1,1.24029525E-1,4.2378908E-1,-3.246372E-1,-1.3936186E-1,-5.6728107E-1,5.044131E-1,9.124638E-3,-4.1202384E-1,-1.3303818E-1,-3.72926E-1,2.863748E-1],"categories":[],"categories_nodes":[],"categories_segments":[],"categories_sizes":[],"default_left":[1,1,1,1,0,1,1,0,1,0,0,0,1,0,0,0,0],"id":29,"left_children":[1,3,5,7,-1,9,11,-1,13,-1,-1,-1,15,-1,-1,-1,-1],"loss_changes":[1.0612609E0,7.3036444E-1,1.4977884E0,1.178984E0,0E0,2.1018791E-1,5.8813584E-1,0E0,1.21946335E-2,0E0,0E0,0E0,1.3178837E0,0E0,0E0,0E0,0E0],"parents":[2147483647,0,0,1,1,2,2,3,3,5,5,6,6,8,8,12,12],"right_children":[2,4,6,8,-1,10,12,-1,14,-1,-1,-1,16,-1,-1,-1,-1],"split_conditions":[3.5331202E-1,2.482635E-1,5.232573E-1,8.482331E-2,6.1787445E-2,4.507318E-1,6.561613E-1,4.237891E-2,2.0158927E-1,-1.3936186E-2,-5.6728106E-2,5.0441314E-2,7.796284E-1,-4.1202385E-2,-1.3303818E-2,-3.72926E-2,2.8637482E-2],"split_indices":[1,1,1,1,0,1,1,0,1,0,0,0,1,0,0,0,0],"split_type":[0,0,0,0,0,0,0,0,0,0,0,0,0,0,0,0,0],"sum_hessian":[2.9023502E1,1.0040043E1,1.898346E1,6.4873123E0,3.5527308E0,6.4221144E0,1.2561345E1,3.4851146E0,3.002198E0,2.6056128E0,3.8165016E0,2.1277533E0,1.0433592E1,1.2717263E0,1.7304716E0,4.242433E0,6.1911592E0],"tree_param":{"num_deleted":"0","num_feature":"2","num_nodes":"17","size_leaf_vector":"0"}},{"base_weights":[1.6588032E-2,1.982126E-1,-3.3816746E-1,-2.4319354E-1,3.909243E-1,-6.7373353E-1,-1.0402871E-1,1.365436E-1,-7.022154E-1,2.423848E-1,5.889366E-1,2.050944E-1,-2.4149117E-1,3.43152E-2,1.812471E-1,4.129525E-1,-3.0195897E-2,-3.1501114E-1,-6.1031472E-2],"categories":[],"categories_nodes":[],"categories_segments":[],"categories_sizes":[],"default_left":[1,1,1,1,1,0,1,1,0,1,0,0,1,0,0,0,0,0,0],"id":30,"left_children":[1,3,5,7,9,-1,11,13,-1,15,-1,-1,17,-1,-1,-1,-1,-1,-1],"loss_changes":[2.0744603E0,1.9015309E0,7.8782403E-1,1.3283E0,3.0332565E-1,0E0,3.7307757E-1,1.52892545E-2,0E0,4.9437445E-1,0E0,0E0,5.6793183E-2,0E0,0E0,0E0,0E0,0E0,0E0],"parents":[2147483647,0,0,1,1,2,2,3,3,4,4,6,6,7,7,9,9,12,12],"right_children":[2,4,6,8,10,-1,12,14,-1,16,-1,-1,18,-1,-1,-1,-1,-1,-1],"split_conditions":[8.0793405E-1,2.462536E-1,8.7977207E-1,2.1056491E-1,6.6844684E-1,-6.737336E-2,8.9886355E-1,1.0019867E-1,-7.0221536E-2,5.0561094E-1,5.8893662E-2,2.050944E-2,9.715679E-1,3.43152E-3,1.812471E-2,4.1295253E-2,-3.0195897E-3,-3.1501114E-2,-6.1031473E-3],"split_indices":[0,0,0,0,0,0,0,0,0,0,0,0,0,0,0,0,0,0,0],"split_type":[0,0,0,0,0,0,0,0,0,0,0,0,0,0,0,0,0,0,0],"sum_hessian":[3.015566E1,2.0236452E1,9.919209E0,6.070354E0,1.4166099E1,3.3050034E0,6.6142054E0,3.7065513E0,2.3638024E0,9.365005E0,4.8010945E0,1.8844608E0,4.7297444E0,1.665496E0,2.0410554E0,5.4436564E0,3.9213479E0,2.830844E0,1.8989006E0],"tree_param":{"num_deleted":"0","num_feature":"2","num_nodes":"19","size_leaf_vector":"0"}},{"base_weights":[5.944646E-2,3.6269143E-1,-1.0796369E-1,2.3176792E-1,5.4391396E-1,4.4281073E-2,-2.4694197E-1,4.4706693E-1,-2.8308102E-1,-2.7056128E-1,3.625895E-1,-3.8426358E-1,-1.4322138E-1,1.4345473E-1,-3.0258074E-1],"categories":[],"categories_nodes":[],"categories_segments":[],"categories_sizes":[],"default_left":[1,1,1,1,0,1,1,0,0,0,0,0,1,0,0],"id":31,"left_children":[1,3,5,7,-1,9,11,-1,-1,-1,-1,-1,13,-1,-1],"loss_changes":[1.4285382E0,1.1035025E-1,4.0034062E-1,9.609393E-1,0E0,1.0632697E0,8.416653E-2,0E0,0E0,0E0,0E0,0E0,3.705991E-1,0E0,0E0],"parents":[2147483647,0,0,1,1,2,2,3,3,5,5,6,6,12,12],"right_children":[2,4,6,8,-1,10,12,-1,-1,-1,-1,-1,14,-1,-1],"split_conditions":[3.7364078E-1,3.1803894E-1,6.306161E-1,2.2309431E-1,5.4391395E-2,5.06439E-1,6.644002E-1,4.4706695E-2,-2.8308103E-2,-2.7056128E-2,3.625895E-2,-3.842636E-2,7.2949255E-1,1.4345474E-2,-3.0258074E-2],"split_indices":[1,1,1,1,0,1,1,0,0,0,0,0,1,0,0],"split_type":[0,0,0,0,0,0,0,0,0,0,0,0,0,0,0],"sum_hessian":[2.6368176E1,8.964141E0,1.7404036E1,6.5273767E0,2.4367647E0,8.630774E0,8.773261E0,4.69548E0,1.8318967E0,4.4144225E0,4.216351E0,2.6112642E0,6.1619973E0,2.2372136E0,3.9247837E0],"tree_param":{"num_deleted":"0","num_feature":"2","num_nodes":"15","size_leaf_vector":"0"}},{"base_weights":[2.3678998E-2,1.2781784E-1,-2.5713828E-1,-4.320785E-1,2.1386439E-1,-5.8648497E-1,5.0142775E-3,3.9336905E-1,2.0272627E-2,2.335293E-2,-1.6685637E-2,1.8595049E-1,4.5488152E-1,-2.0931497E-1,5.149248E-1],"categories":[],"categories_nodes":[],"categories_segments":[],"categories_sizes":[],"default_left":[1,1,1,0,1,0,1,1,1,0,0,0,0,0,0],"id":32,"left_children":[1,3,5,-1,7,-1,9,11,13,-1,-1,-1,-1,-1,-1],"loss_changes":[6.940932E-1,9.1922116E-1,5.597158E-1,0E0,5.322143E-1,0E0,2.2131158E-3,1.763177E-2,1.0768669E0,0E0,0E0,0E0,0E0,0E0,0E0],"parents":[2147483647,0,0,1,1,2,2,4,4,6,6,7,7,8,8],"right_children":[2,4,6,-1,8,-1,10,12,14,-1,-1,-1,-1,-1,-1],"split_conditions":[8.0793405E-1,1.4754191E-1,9.347061E-1,-4.320785E-2,5.0561094E-1,-5.8648497E-2,9.7857773E-1,2.424641E-1,7.229505E-1,2.335293E-3,-1.6685637E-3,1.859505E-2,4.5488153E-2,-2.0931497E-2,5.1492482E-2],"split_indices":[0,0,0,0,0,0,0,0,0,0,0,0,0,0,0],"split_type":[0,0,0,0,0,0,0,0,0,0,0,0,0,0,0],"sum_hessian":[2.1610678E1,1.6161974E1,5.448703E0,1.6172483E0,1.4544725E1,1.8665434E0,3.5821595E0,7.0114903E0,7.5332355E0,1.9001564E0,1.6820031E0,2.5239077E0,4.4875827E0,5.539144E0,1.9940913E0],"tree_param":{"num_deleted":"0","num_feature":"2","num_nodes":"15","size_leaf_vector":"0"}},{"base_weights":[3.0102383E-2,3.701937E-1,-2.1663541E-2,-5.655441E-1,3.9019182E-2,1.100536E-1,-1.1214902E-1,-3.2638647E-2,5.405229E-1,-5.0396425E-1,1.5578954E-1],"categories":[],"categories_nodes":[],"categories_segments":[],"categories_sizes":[],"default_left":[1,0,1,0,1,1,1,0,0,0,0],"id":33,"left_children":[1,-1,3,-1,5,7,9,-1,-1,-1,-1],"loss_changes":[4.700472E-1,0E0,8.049814E-1,0E0,2.5154632E-1,9.7952205E-1,8.7811875E-1,0E0,0E0,0E0,0E0],"parents":[2147483647,0,0,2,2,4,4,5,5,6,6],"right_children":[2,-1,4,-1,6,8,10,-1,-1,-1,-1],"split_conditions":[2.1056491E-1,3.701937E-2,2.4331838E-1,-5.6554414E-2,8.0793405E-1,7.6741207E-1,9.107208E-1,-3.2638647E-3,5.405229E-2,-5.0396424E-2,1.55789545E-2],"split_indices":[0,0,0,0,0,0,0,0,0,0,0],"split_type":[0,0,0,0,0,0,0,0,0,0,0],"sum_hessian":[2.5243896E1,2.5222092E0,2.2721687E1,1.4455929E0,2.1276094E1,1.4659519E1,6.6165757E0,1.1704037E1,2.955483E0,2.329369E0,4.2872066E0],"tree_param":{"num_deleted":"0","num_feature":"2","num_nodes":"11","size_leaf_vector":"0"}},{"base_weights":[-1.4217486E-2,6.3963157E-1,-7.947006E-2,-3.0600575E-1,5.4031376E-2,-7.777608E-2,-5.866246E-1,3.281587E-1,-2.907879E-1,-4.4298494E-1,3.4393775E-1,-6.862108E-3,5.756234E-1,-3.7368014E-1,-6.289676E-2],"categories":[],"categories_nodes":[],"categories_segments":[],"categories_sizes":[],"default_left":[1,0,1,1,1,1,0,1,1,0,0,0,0,0,0],"id":34,"left_children":[1,-1,3,5,7,9,-1,11,13,-1,-1,-1,-1,-1,-1],"loss_changes":[1.1590157E0,0E0,7.5767857E-1,5.45966E-1,1.6332805E0,1.114463E0,0E0,7.943413E-1,1.2262905E-1,0E0,0E0,0E0,0E0,0E0,0E0],"parents":[2147483647,0,0,2,2,3,3,4,4,5,5,7,7,8,8],"right_children":[2,-1,4,6,8,10,-1,12,14,-1,-1,-1,-1,-1,-1],"split_conditions":[1.5747353E-1,6.396316E-2,4.670831E-1,3.6204216E-1,8.0793405E-1,2.4539931E-1,-5.8662463E-2,7.123294E-1,9.7857773E-1,-4.4298496E-2,3.4393776E-2,-6.862108E-4,5.756234E-2,-3.7368014E-2,-6.289676E-3],"split_indices":[0,0,0,0,0,0,0,0,0,0,0,0,0,0,0],"split_type":[0,0,0,0,0,0,0,0,0,0,0,0,0,0,0],"sum_hessian":[2.4973879E1,1.4674295E0,2.3506449E1,8.2370405E0,1.5269408E1,5.246874E0,2.990167E0,8.533607E0,6.735801E0,2.7847822E0,2.462092E0,4.038502E0,4.495105E0,4.470125E0,2.2656765E0],"tree_param":{"num_deleted":"0","num_feature":"2","num_nodes":"15","size_leaf_vector":"0"}},{"base_weights":[-8.066303E-2,-3.6476305E-1,6.6153616E-2,1.8082921E-1,-4.0932566E-1,4.439589E-1,6.08185E-2,-5.451465E-1,2.13806E-1],"categories":[],"categories_nodes":[],"categories_segments":[],"categories_sizes":[],"default_left":[1,0,1,1,0,0,1,0,0],"id":35,"left_children":[1,-1,3,5,-1,-1,7,-1,-1],"loss_changes":[1.2168223E0,0E0,1.1481001E0,4.960776E-1,0E0,0E0,1.2785877E0,0E0,0E0],"parents":[2147483647,0,0,2,2,3,3,6,6],"right_children":[2,-1,4,6,-1,-1,8,-1,-1],"split_conditions":[3.1803894E-1,-3.6476307E-2,8.8511753E-1,3.984087E-1,-4.0932566E-2,4.439589E-2,4.7041702E-1,-5.4514654E-2,2.1380601E-2],"split_indices":[1,0,1,1,0,0,1,0,0],"split_type":[0,0,0,0,0,0,0,0,0],"sum_hessian":[2.7594444E1,8.895867E0,1.8698578E1,1.556445E1,3.1341271E0,4.0297303E0,1.153472E1,1.8084254E0,9.7262945E0],"tree_param":{"num_deleted":"0","num_feature":"2","num_nodes":"9","size_leaf_vector":"0"}},{"base_weights":[-1.7333627E-1,-4.2170638E-1,-7.791824E-2,-1.4261907E-1,-4.7282362E-1,3.5115388E-1,-1.7891528E-1,-4.12843E-1,-7.485801E-2,-3.7361763E-2,-5.2174884E-1,2.5030306E-1,-1.9270776E-1],"categories":[],"categories_nodes":[],"categories_segments":[],"categories_sizes":[],"default_left":[1,1,1,0,0,0,1,1,1,0,0,0,0],"id":36,"left_children":[1,3,5,-1,-1,-1,7,9,11,-1,-1,-1,-1],"loss_changes":[5.174449E-1,2.1276116E-2,8.429593E-1,0E0,0E0,0E0,3.3993754E-1,1.6324997E-1,4.991033E-1,0E0,0E0,0E0,0E0],"parents":[2147483647,0,0,1,1,2,2,6,6,7,7,8,8],"right_children":[2,4,6,-1,-1,-1,8,10,12,-1,-1,-1,-1],"split_conditions":[3.1803894E-1,2.1238112E-1,4.1672975E-1,-1.4261908E-2,-4.7282364E-2,3.5115387E-2,5.1205635E-1,4.816252E-1,6.306161E-1,-3.7361763E-3,-5.2174885E-2,2.5030306E-2,-1.9270776E-2],"split_indices":[1,1,1,0,0,0,1,1,1,0,0,0,0],"split_type":[0,0,0,0,0,0,0,0,0,0,0,0,0],"sum_hessian":[2.2220552E1,5.2181935E0,1.700236E1,1.3945171E0,3.8236763E0,2.767622E0,1.4234737E1,3.468918E0,1.076582E1,1.0818892E0,2.387029E0,2.564939E0,8.20088E0],"tree_param":{"num_deleted":"0","num_feature":"2","num_nodes":"13","size_leaf_vector":"0"}},{"base_weights":[-4.789786E-3,1.9792804E-1,-1.9369909E-1,4.4609278E-1,1.3351534E-1,-1.330856E-1,-4.819361E-1,-1.0208524E-1,2.2954397E-1,-4.0559036E-1,-5.789307E-2,-8.163329E-3,-1.8230398E-1,3.702153E-1,1.2631862E-1,2.327916E-1,-1.8356323E-1],"categories":[],"categories_nodes":[],"categories_segments":[],"categories_sizes":[],"default_left":[1,1,1,0,1,1,0,1,1,0,1,0,0,0,0,0,0],"id":37,"left_children":[1,3,5,-1,7,9,-1,11,13,-1,15,-1,-1,-1,-1,-1,-1],"loss_changes":[1.0397983E0,1.4998764E-1,1.8118852E-1,0E0,2.9118896E-1,2.4255753E-1,0E0,2.95466E-2,7.979417E-2,0E0,4.5707062E-1,0E0,0E0,0E0,0E0,0E0,0E0],"parents":[2147483647,0,0,1,1,2,2,4,4,5,5,7,7,8,8,10,10],"right_children":[2,4,6,-1,8,10,-1,12,14,-1,16,-1,-1,-1,-1,-1,-1],"split_conditions":[4.816252E-1,3.5295073E-2,9.922863E-1,4.460928E-2,2.0469564E-1,5.06439E-1,-4.819361E-2,8.482331E-2,2.8955525E-1,-4.0559035E-2,6.306161E-1,-8.1633293E-4,-1.82304E-2,3.702153E-2,1.2631862E-2,2.327916E-2,-1.8356323E-2],"split_indices":[1,1,1,0,1,1,0,1,1,0,1,0,0,0,0,0,0],"split_type":[0,0,0,0,0,0,0,0,0,0,0,0,0,0,0,0,0],"sum_hessian":[2.5150995E1,1.2109065E1,1.304193E1,1.2742357E0,1.0834829E1,1.1983613E1,1.0583172E0,3.1191375E0,7.7156916E0,1.6413134E0,1.0342299E1,1.9443786E0,1.1747589E0,2.170858E0,5.5448337E0,2.8643765E0,7.477923E0],"tree_param":{"num_deleted":"0","num_feature":"2","num_nodes":"17","size_leaf_vector":"0"}},{"base_weights":[8.880526E-2,3.351997E-1,-8.514743E-2,2.1220855E-1,4.4664478E-1,-5.2397984E-1,1.138986E-2,4.3230245E-1,-3.1213012E-1,5.743085E-1,1.6507004E-1,1.665766E-1,-1.7754385E-1,2.2101843E-1,5.757722E-1,-6.5971646E-3,4.814848E-1,-3.566872E-1,3.990059E-2],"categories":[],"categories_nodes":[],"categories_segments":[],"categories_sizes":[],"default_left":[1,1,1,1,1,0,1,1,0,0,0,1,1,0,0,0,0,0,0],"id":38,"left_children":[1,3,5,7,9,-1,11,13,-1,-1,-1,15,17,-1,-1,-1,-1,-1,-1],"loss_changes":[1.2517698E0,6.987834E-2,7.4844986E-1,1.0138376E0,9.921038E-2,0E0,4.7948304E-1,4.8058867E-2,0E0,0E0,0E0,4.907484E-1,3.0264676E-1,0E0,0E0,0E0,0E0,0E0,0E0],"parents":[2147483647,0,0,1,1,2,2,3,3,4,4,6,6,7,7,11,11,12,12],"right_children":[2,4,6,8,10,-1,12,14,-1,-1,-1,16,18,-1,-1,-1,-1,-1,-1],"split_conditions":[4.2079854E-1,2.4539931E-1,5.5472445E-1,1.9109589E-1,3.416211E-1,-5.2397985E-2,8.4011E-1,1.4754191E-1,-3.1213013E-2,5.7430852E-2,1.6507005E-2,8.056606E-1,9.347061E-1,2.2101844E-2,5.7577223E-2,-6.597165E-4,4.814848E-2,-3.566872E-2,3.9900593E-3],"split_indices":[0,0,0,0,0,0,0,0,0,0,0,0,0,0,0,0,0,0,0],"split_type":[0,0,0,0,0,0,0,0,0,0,0,0,0,0,0,0,0,0,0],"sum_hessian":[2.753944E1,1.101307E1,1.652637E1,6.6158977E0,4.397173E0,2.181611E0,1.4344759E1,4.783519E0,1.8323786E0,2.310142E0,2.087031E0,7.9407244E0,6.404034E0,2.9619942E0,1.8215246E0,5.7549973E0,2.1857271E0,3.1601548E0,3.243879E0],"tree_param":{"num_deleted":"0","num_feature":"2","num_nodes":"19","size_leaf_vector":"0"}},{"base_weights":[-3.0555123E-2,3.9650416E-1,-2.6553097E-1,-7.887177E-3,4.5991775E-1,-3.1427065E-1,2.2753583E-2,7.5707144E-1,2.3473665E-1,-2.4072279E-1,-4.5211726E-1,-2.2255455E-1,5.84415E-1,-3.5727787E-1,3.909239E-1],"categories":[],"categories_nodes":[],"categories_segments":[],"categories_sizes":[],"default_left":[1,1,1,0,1,1,0,0,1,1,0,0,0,0,0],"id":39,"left_children":[1,3,5,-1,7,9,-1,-1,11,13,-1,-1,-1,-1,-1],"loss_changes":[3.248026E0,2.989645E-1,2.9942894E-1,0E0,4.8958397E-1,7.224202E-2,0E0,0E0,1.2690226E0,1.1545689E0,0E0,0E0,0E0,0E0,0E0],"parents":[2147483647,0,0,1,1,2,2,4,4,5,5,8,8,9,9],"right_children":[2,4,6,-1,8,10,-1,-1,12,14,-1,-1,-1,-1,-1],"split_conditions":[3.5624555E-1,1.0019867E-1,9.3369514E-1,-7.887177E-4,1.9109589E-1,8.0793405E-1,2.2753584E-3,7.5707145E-2,2.4539931E-1,8.056606E-1,-4.521173E-2,-2.2255456E-2,5.84415E-2,-3.5727788E-2,3.9092388E-2],"split_indices":[0,0,0,0,0,0,0,0,0,0,0,0,0,0,0],"split_type":[0,0,0,0,0,0,0,0,0,0,0,0,0,0,0],"sum_hessian":[3.0318235E1,1.051685E1,1.9801384E1,1.5443139E0,8.972537E0,1.686065E1,2.9407344E0,2.849811E0,6.122726E0,1.2785354E1,4.075296E0,2.8106496E0,3.3120763E0,1.1160352E1,1.6250019E0],"tree_param":{"num_deleted":"0","num_feature":"2","num_nodes":"15","size_leaf_vector":"0"}},{"base_weights":[1.3198729E-3,-4.1660872E-1,1.1735263E-1,2.1125421E-1,-5.763632E-1,6.68795E-1,1.2537672E-1,-5.086166E-1,2.1359345E-1],"categories":[],"categories_nodes":[],"categories_segments":[],"categories_sizes":[],"default_left":[1,0,1,1,0,0,1,0,0],"id":40,"left_children":[1,-1,3,5,-1,-1,7,-1,-1],"loss_changes":[1.3694695E0,0E0,1.5610287E0,7.0955276E-1,0E0,0E0,1.1283295E0,0E0,0E0],"parents":[2147483647,0,0,2,2,3,3,6,6],"right_children":[2,-1,4,6,-1,-1,8,-1,-1],"split_conditions":[2.2620068E-1,-4.166087E-2,9.922863E-1,2.8955525E-1,-5.763632E-2,6.68795E-2,3.1803894E-1,-5.0861664E-2,2.1359345E-2],"split_indices":[1,0,1,1,0,0,1,0,0],"split_type":[0,0,0,0,0,0,0,0,0],"sum_hessian":[2.6232145E1,5.137473E0,2.1094673E1,1.9192274E1,1.9023979E0,1.9603078E0,1.7231966E1,1.5227537E0,1.5709213E1],"tree_param":{"num_deleted":"0","num_feature":"2","num_nodes":"9","size_leaf_vector":"0"}},{"base_weights":[2.689117E-3,3.7506244E-1,-1.0616473E-1,1.0783875E-2,5.6793904E-1,-2.1050292E-1,6.868628E-3,-3.9523714E-3,-3.3428794E-1,2.668533E-1,-1.237892E-1,-1.4885555E-1,9.8413005E-2,-4.2131364E-1,-1.443122E-1,-2.864646E-1,1.0851127E-1],"categories":[],"categories_nodes":[],"categories_segments":[],"categories_sizes":[],"default_left":[1,1,1,0,0,1,1,1,1,0,1,0,0,0,0,0,0],"id":41,"left_children":[1,3,5,-1,-1,7,9,11,13,-1,15,-1,-1,-1,-1,-1,-1],"loss_changes":[1.1938204E0,4.6184695E-1,2.7045172E-1,0E0,0E0,3.0274326E-1,4.3783727E-1,9.5761925E-2,6.1939955E-2,0E0,3.566094E-1,0E0,0E0,0E0,0E0,0E0,0E0],"parents":[2147483647,0,0,1,1,2,2,5,5,6,6,7,7,8,8,10,10],"right_children":[2,4,6,-1,-1,8,10,12,14,-1,16,-1,-1,-1,-1,-1,-1],"split_conditions":[2.1548748E-1,1.4318597E-1,5.06439E-1,1.0783876E-3,5.6793906E-2,3.4624758E-1,7.0700866E-1,2.482635E-1,4.7041702E-1,2.6685331E-2,9.365899E-1,-1.4885555E-2,9.841301E-3,-4.2131364E-2,-1.44312205E-2,-2.864646E-2,1.0851127E-2],"split_indices":[1,1,1,0,0,1,1,1,1,0,1,0,0,0,0,0,0],"split_type":[0,0,0,0,0,0,0,0,0,0,0,0,0,0,0,0,0],"sum_hessian":[2.7469786E1,5.6604934E0,2.1809292E1,2.3250923E0,3.3354013E0,1.08924465E1,1.0916845E1,4.468363E0,6.4240837E0,3.3027022E0,7.614143E0,1.6618185E0,2.8065443E0,3.5706754E0,2.8534086E0,4.3410373E0,3.2731059E0],"tree_param":{"num_deleted":"0","num_feature":"2","num_nodes":"17","size_leaf_vector":"0"}},{"base_weights":[-6.948242E-2,1.2215564E-3,-4.8674157E-1,-4.2497735E-2,4.259297E-1,1.5162376E-1,-1.6801658E-1,-1.7190057E-1,5.9433E-1,-4.5170197E-1,-1.9034935E-2],"categories":[],"categories_nodes":[],"categories_segments":[],"categories_sizes":[],"default_left":[1,1,0,1,0,1,1,0,0,0,0],"id":42,"left_children":[1,3,-1,5,-1,7,9,-1,-1,-1,-1],"loss_changes":[7.9018813E-1,4.6157113E-1,0E0,5.752631E-1,0E0,1.4465122E0,5.906043E-1,0E0,0E0,0E0,0E0],"parents":[2147483647,0,0,1,1,3,3,5,5,6,6],"right_children":[2,4,-1,6,-1,8,10,-1,-1,-1,-1],"split_conditions":[9.347061E-1,8.998745E-1,-4.867416E-2,3.6204216E-1,4.259297E-2,2.4539931E-1,4.925381E-1,-1.7190058E-2,5.9433002E-2,-4.51702E-2,-1.9034935E-3],"split_indices":[0,0,0,0,0,0,0,0,0,0,0],"split_type":[0,0,0,0,0,0,0,0,0,0,0],"sum_hessian":[2.5764175E1,2.2883646E1,2.8805292E0,2.1563812E1,1.319834E0,8.386175E0,1.3177636E1,5.1987195E0,3.1874557E0,3.8378375E0,9.339799E0],"tree_param":{"num_deleted":"0","num_feature":"2","num_nodes":"11","size_leaf_vector":"0"}},{"base_weights":[1.7531829E-2,1.0336457E-1,-6.375222E-1,-2.533242E-1,2.3414344E-1,-1.4942543E-1,-4.3991524E-1,3.953397E-1,7.5583835E-3,-3.1485522E-1,1.0570378E-1,2.4391662E-1,6.0121465E-1,-4.9988535E-1,2.110726E-1],"categories":[],"categories_nodes":[],"categories_segments":[],"categories_sizes":[],"default_left":[1,1,0,1,1,1,0,1,1,0,0,0,0,0,0],"id":43,"left_children":[1,3,-1,5,7,9,-1,11,13,-1,-1,-1,-1,-1,-1],"loss_changes":[1.7891576E0,1.3635293E0,0E0,8.8994384E-2,7.63219E-1,3.1357116E-1,0E0,2.3486638E-1,1.1113529E0,0E0,0E0,0E0,0E0,0E0,0E0],"parents":[2147483647,0,0,1,1,3,3,4,4,5,5,7,7,8,8],"right_children":[2,4,-1,6,8,10,-1,12,14,-1,-1,-1,-1,-1,-1],"split_conditions":[8.8511753E-1,2.482635E-1,-6.375223E-2,2.1548748E-1,6.306161E-1,2.0158927E-1,-4.3991525E-2,5.06439E-1,6.644002E-1,-3.1485524E-2,1.0570378E-2,2.4391662E-2,6.0121465E-2,-4.9988534E-2,2.110726E-2],"split_indices":[1,1,0,1,1,1,0,1,1,0,0,0,0,0,0],"split_type":[0,0,0,0,0,0,0,0,0,0,0,0,0,0,0],"sum_hessian":[2.9649317E1,2.6959036E1,2.6902797E0,6.9812365E0,1.99778E1,5.6409984E0,1.3402382E0,1.1238077E1,8.739723E0,3.280057E0,2.3609412E0,7.7342434E0,3.5038333E0,2.0849147E0,6.6548085E0],"tree_param":{"num_deleted":"0","num_feature":"2","num_nodes":"15","size_leaf_vector":"0"}},{"base_weights":[1.0352248E-2,-4.099745E-2,4.9902564E-1,3.3287834E-2,-5.267266E-1,-1.046009E-1,2.5839671E-1,3.4095764E-1,-1.7970316E-1,8.202206E-2,3.0585593E-1],"categories":[],"categories_nodes":[],"categories_segments":[],"categories_sizes":[],"default_left":[1,1,0,1,0,1,1,0,0,0,0],"id":44,"left_children":[1,3,-1,5,-1,7,9,-1,-1,-1,-1],"loss_changes":[6.339601E-1,8.491697E-1,0E0,6.7673916E-1,0E0,5.194465E-1,4.3879986E-2,0E0,0E0,0E0,0E0],"parents":[2147483647,0,0,1,1,3,3,5,5,6,6],"right_children":[2,4,-1,6,-1,8,10,-1,-1,-1,-1],"split_conditions":[9.715679E-1,8.3900726E-1,4.9902566E-2,5.5472445E-1,-5.267266E-2,1.5747353E-1,6.6844684E-1,3.4095764E-2,-1.7970316E-2,8.202206E-3,3.0585593E-2],"split_indices":[0,0,0,0,0,0,0,0,0,0,0],"split_type":[0,0,0,0,0,0,0,0,0,0,0],"sum_hessian":[2.344888E1,2.2048166E1,1.400712E0,1.9931412E1,2.1167543E0,1.2692221E1,7.239191E0,1.3201668E0,1.1372054E1,2.1133864E0,5.125805E0],"tree_param":{"num_deleted":"0","num_feature":"2","num_nodes":"11","size_leaf_vector":"0"}},{"base_weights":[3.9715357E-3,4.2780632E-1,-3.882104E-2,-4.555808E-1,5.554062E-3,2.558987E-1,-7.937962E-2,-8.482321E-2,5.1178604E-1,-1.2348005E-1,2.9261318E-1],"categories":[],"categories_nodes":[],"categories_segments":[],"categories_sizes":[],"default_left":[1,0,1,0,1,1,1,0,0,0,0],"id":45,"left_children":[1,-1,3,-1,5,7,9,-1,-1,-1,-1],"loss_changes":[4.8886973E-1,0E0,4.5687604E-1,0E0,5.1342344E-1,5.762646E-1,3.3272994E-1,0E0,0E0,0E0,0E0],"parents":[2147483647,0,0,2,2,4,4,5,5,6,6],"right_children":[2,-1,4,-1,6,8,10,-1,-1,-1,-1],"split_conditions":[5.0490852E-2,4.2780634E-2,1.5747353E-1,-4.555808E-2,3.416211E-1,2.4539931E-1,9.715679E-1,-8.482321E-3,5.1178604E-2,-1.2348006E-2,2.9261319E-2],"split_indices":[0,0,0,0,0,0,0,0,0,0,0],"split_type":[0,0,0,0,0,0,0,0,0,0,0],"sum_hessian":[2.5038612E1,1.4710946E0,2.3567518E1,1.3761816E0,2.2191336E1,5.111654E0,1.7079683E1,2.4791293E0,2.6325245E0,1.5866713E1,1.2129703E0],"tree_param":{"num_deleted":"0","num_feature":"2","num_nodes":"11","size_leaf_vector":"0"}},{"base_weights":[-2.265152E-2,1.4552191E-1,-4.0179482E-1,2.608459E-2,4.0917456E-1,-1.798026E-1,-4.73862E-1,8.353003E-2,-2.0667665E-1,-4.4995147E-1,2.2152959E-1,-5.681494E-1,-1.6786322E-1,-1.8290075E-2,4.0306094E-1],"categories":[],"categories_nodes":[],"categories_segments":[],"categories_sizes":[],"default_left":[1,1,1,1,0,1,1,1,0,0,0,0,0,0,0],"id":46,"left_children":[1,3,5,7,-1,9,11,13,-1,-1,-1,-1,-1,-1,-1],"loss_changes":[1.5060533E0,5.0768864E-1,3.0655265E-2,1.8302628E-1,0E0,4.6681273E-1,4.4720173E-2,3.5403907E-1,0E0,0E0,0E0,0E0,0E0,0E0,0E0],"parents":[2147483647,0,0,1,1,2,2,3,3,5,5,6,6,7,7],"right_children":[2,4,6,8,-1,10,12,14,-1,-1,-1,-1,-1,-1,-1],"split_conditions":[6.306161E-1,4.7041702E-1,8.5470176E-1,4.1672975E-1,4.0917456E-2,6.644002E-1,9.738467E-1,2.993294E-1,-2.0667665E-2,-4.4995148E-2,2.2152958E-2,-5.681494E-2,-1.6786322E-2,-1.8290075E-3,4.0306095E-2],"split_indices":[1,1,1,1,0,1,1,1,0,0,0,0,0,0,0],"split_type":[0,0,0,0,0,0,0,0,0,0,0,0,0,0,0],"sum_hessian":[2.1702976E1,1.5461174E1,6.2418017E0,1.1397106E1,4.064069E0,2.3862484E0,3.8555534E0,9.655311E0,1.741795E0,1.3538119E0,1.0324366E0,2.2924697E0,1.5630836E0,8.037031E0,1.6182799E0],"tree_param":{"num_deleted":"0","num_feature":"2","num_nodes":"15","size_leaf_vector":"0"}},{"base_weights":[3.1554105E-4,-2.9584444E-1,1.0258744E-1,-4.428481E-1,-1.2959512E-1,5.3942937E-1,-2.7364975E-2,1.0219638E-1,-3.9156678E-1,-1.05846725E-1,4.435648E-1,1.8971689E-2,-2.643787E-1],"categories":[],"categories_nodes":[],"categories_segments":[],"categories_sizes":[],"default_left":[1,1,1,0,1,0,1,0,0,1,0,0,0],"id":47,"left_children":[1,3,5,-1,7,-1,9,-1,-1,11,-1,-1,-1],"loss_changes":[8.5114497E-1,1.1889905E-1,1.200405E0,0E0,3.3141422E-1,0E0,6.770593E-1,0E0,0E0,3.1015575E-1,0E0,0E0,0E0],"parents":[2147483647,0,0,1,1,2,2,4,4,6,6,9,9],"right_children":[2,4,6,-1,8,-1,10,-1,-1,12,-1,-1,-1],"split_conditions":[2.4539931E-1,1.4754191E-1,3.598449E-1,-4.428481E-2,2.1056491E-1,5.3942937E-2,9.715679E-1,1.0219638E-2,-3.915668E-2,8.0683124E-1,4.435648E-2,1.8971689E-3,-2.643787E-2],"split_indices":[0,0,0,0,0,0,0,0,0,0,0,0,0],"split_type":[0,0,0,0,0,0,0,0,0,0,0,0,0],"sum_hessian":[2.6098923E1,6.213393E0,1.988553E1,2.4145775E0,3.7988155E0,3.836834E0,1.6048697E1,2.3390918E0,1.4597238E0,1.4420688E1,1.6280085E0,8.56078E0,5.8599076E0],"tree_param":{"num_deleted":"0","num_feature":"2","num_nodes":"13","size_leaf_vector":"0"}},{"base_weights":[8.386173E-3,7.65806E-2,-1.8722452E-1,-1.24407925E-1,2.0515488E-1,-4.408936E-1,-3.803616E-2,1.4323199E-1,-2.615029E-1,4.2722806E-1,1.3189225E-1,3.4390765E-1,-1.9490068E-1,-7.9136744E-2,3.1017908E-1],"categories":[],"categories_nodes":[],"categories_segments":[],"categories_sizes":[],"default_left":[1,1,1,1,1,0,1,0,0,0,1,0,0,0,0],"id":48,"left_children":[1,3,5,7,9,-1,11,-1,-1,-1,13,-1,-1,-1,-1],"loss_changes":[3.7867314E-1,5.67216E-1,2.6141077E-1,3.603623E-1,1.5778226E-1,0E0,4.099077E-1,0E0,0E0,0E0,4.5131356E-1,0E0,0E0,0E0,0E0],"parents":[2147483647,0,0,1,1,2,2,3,3,4,4,6,6,10,10],"right_children":[2,4,6,8,10,-1,12,-1,-1,-1,14,-1,-1,-1,-1],"split_conditions":[7.0799196E-1,2.8996712E-1,7.796284E-1,8.482331E-2,3.7364078E-1,-4.408936E-2,8.8511753E-1,1.4323199E-2,-2.615029E-2,4.2722806E-2,5.06439E-1,3.4390766E-2,-1.9490069E-2,-7.913674E-3,3.1017909E-2],"split_indices":[1,1,1,1,1,0,1,0,0,0,1,0,0,0,0],"split_type":[0,0,0,0,0,0,0,0,0,0,0,0,0,0,0],"sum_hessian":[2.6312399E1,1.996177E1,6.3506308E0,7.8004446E0,1.21613245E1,1.6277097E0,4.7229214E0,2.6270647E0,5.17338E0,1.8182867E0,1.0343038E1,1.0278527E0,3.6950684E0,4.9912624E0,5.3517747E0],"tree_param":{"num_deleted":"0","num_feature":"2","num_nodes":"15","size_leaf_vector":"0"}},{"base_weights":[9.987888E-3,4.8573616E-1,-1.2720114E-1,-5.6089175E-1,-4.0547065E-2,-1.14005685E-1,8.466533E-2,-2.8193794E-2,-4.8137465E-1,3.6912292E-1,-1.7283782E-1],"categories":[],"categories_nodes":[],"categories_segments":[],"categories_sizes":[],"default_left":[1,0,1,0,1,1,1,0,0,0,0],"id":49,"left_children":[1,-1,3,-1,5,7,9,-1,-1,-1,-1],"loss_changes":[1.7515424E0,0E0,7.622319E-1,0E0,1.7969434E-1,3.671694E-1,6.06528E-1,0E0,0E0,0E0,0E0],"parents":[2147483647,0,0,2,2,4,4,5,5,6,6],"right_children":[2,-1,4,-1,6,8,10,-1,-1,-1,-1],"split_conditions":[2.1238112E-1,4.8573617E-2,2.482635E-1,-5.6089174E-2,6.644002E-1,6.306161E-1,8.885479E-1,-2.8193796E-3,-4.8137467E-2,3.6912292E-2,-1.7283782E-2],"split_indices":[1,0,1,0,1,1,1,0,0,0,0],"split_type":[0,0,0,0,0,0,0,0,0,0,0],"sum_hessian":[2.4889725E1,5.002224E0,1.98875E1,2.4005148E0,1.7486986E1,1.10775795E1,6.409405E0,9.852847E0,1.2247325E0,2.8393612E0,3.5700443E0],"tree_param":{"num_deleted":"0","num_feature":"2","num_nodes":"11","size_leaf_vector":"0"}},{"base_weights":[-6.9633044E-2,4.8799634E-1,-1.6518132E-1,-5.0137773E-2,-2.5002703E-1,-1.9442788E-1,4.2914513E-1,-3.5011125E-1,1.0858851E-2,-2.204242E-1,-6.552063E-2,2.4073158E-1,-2.1570288E-1],"categories":[],"categories_nodes":[],"categories_segments":[],"categories_sizes":[],"default_left":[1,0,1,1,1,1,0,0,1,0,0,0,0],"id":50,"left_children":[1,-1,3,5,7,9,-1,-1,11,-1,-1,-1,-1],"loss_changes":[1.380954E0,0E0,1.9813138E-1,8.0347914E-1,3.215875E-1,1.4681697E-2,0E0,0E0,2.7818662E-1,0E0,0E0,0E0,0E0],"parents":[2147483647,0,0,2,2,3,3,4,4,5,5,8,8],"right_children":[2,-1,4,6,8,10,-1,-1,12,-1,-1,-1,-1],"split_conditions":[8.482331E-2,4.8799634E-2,4.1672975E-1,3.4423983E-1,7.796284E-1,2.763353E-1,4.2914513E-2,-3.5011124E-2,9.331596E-1,-2.2042422E-2,-6.552063E-3,2.407316E-2,-2.1570288E-2],"split_indices":[1,0,1,1,1,1,0,0,1,0,0,0,0],"split_type":[0,0,0,0,0,0,0,0,0,0,0,0,0],"sum_hessian":[2.3405651E1,2.8230019E0,2.058265E1,9.411876E0,1.11707735E1,7.6908493E0,1.7210262E0,7.8263316E0,3.3444421E0,5.809351E0,1.8814985E0,1.629046E0,1.715396E0],"tree_param":{"num_deleted":"0","num_feature":"2","num_nodes":"13","size_leaf_vector":"0"}},{"base_weights":[-6.6709936E-2,1.0549772E-1,-2.0319365E-1,-1.29241785E-2,2.9835832E-1,-3.3403102E-1,-1.6930515E-1,2.035803E-1,-2.0975007E-1,6.115828E-2,-1.9793317E-1,-3.2985553E-2,-2.6582938E-1,-2.7607435E-1,-1.53008E-1],"categories":[],"categories_nodes":[],"categories_segments":[],"categories_sizes":[],"default_left":[1,1,1,1,0,0,1,0,1,0,1,0,0,0,0],"id":51,"left_children":[1,3,5,7,-1,-1,9,-1,11,-1,13,-1,-1,-1,-1],"loss_changes":[6.311257E-1,2.808328E-1,9.12559E-3,4.0373388E-1,0E0,0E0,1.0310945E-1,0E0,4.0105E-2,0E0,1.6582906E-3,0E0,0E0,0E0,0E0],"parents":[2147483647,0,0,1,1,2,2,3,3,6,6,8,8,10,10],"right_children":[2,4,6,8,-1,-1,10,-1,12,-1,14,-1,-1,-1,-1],"split_conditions":[4.2079854E-1,2.4539931E-1,4.7094345E-1,1.9109589E-1,2.9835833E-2,-3.3403102E-2,5.0561094E-1,2.0358032E-2,2.0665506E-1,6.115828E-3,6.6844684E-1,-3.2985553E-3,-2.658294E-2,-2.7607435E-2,-1.53008E-2],"split_indices":[0,0,0,0,0,0,0,0,0,0,0,0,0,0,0],"split_type":[0,0,0,0,0,0,0,0,0,0,0,0,0,0,0],"sum_hessian":[2.4940315E1,1.1127402E1,1.3812914E1,7.4722285E0,3.6551738E0,1.0196123E0,1.2793302E1,3.541897E0,3.9303312E0,1.288027E0,1.1505275E1,1.3291103E0,2.601221E0,2.3217335E0,9.183541E0],"tree_param":{"num_deleted":"0","num_feature":"2","num_nodes":"15","size_leaf_vector":"0"}},{"base_weights":[-2.3388911E-2,3.969656E-1,-1.0739212E-1,-2.5167143E-1,2.9711038E-1,-4.8113745E-1,-1.744855E-1,4.0932438E-1,-2.6209843E-1],"categories":[],"categories_nodes":[],"categories_segments":[],"categories_sizes":[],"default_left":[1,0,1,1,0,0,1,0,0],"id":52,"left_children":[1,-1,3,5,-1,-1,7,-1,-1],"loss_changes":[9.7133327E-1,0E0,1.3999934E0,2.2208011E-1,0E0,0E0,8.4887236E-1,0E0,0E0],"parents":[2147483647,0,0,2,2,3,3,6,6],"right_children":[2,-1,4,6,-1,-1,8,-1,-1],"split_conditions":[2.8955525E-1,3.969656E-2,7.796284E-1,3.278131E-1,2.9711038E-2,-4.8113745E-2,3.7364078E-1,4.093244E-2,-2.6209844E-2],"split_indices":[1,0,1,1,0,0,1,0,0],"split_type":[0,0,0,0,0,0,0,0,0],"sum_hessian":[2.5300554E1,3.5934124E0,2.1707142E1,1.6278645E1,5.4284973E0,2.7801256E0,1.3498519E1,1.2822524E0,1.2216267E1],"tree_param":{"num_deleted":"0","num_feature":"2","num_nodes":"9","size_leaf_vector":"0"}},{"base_weights":[7.263849E-2,1.1585719E-1,-4.257961E-1,-1.6184388E-1,1.6033447E-1,4.5285186E-1,3.0204417E-2,-4.6265906E-1,1.2986259E-1],"categories":[],"categories_nodes":[],"categories_segments":[],"categories_sizes":[],"default_left":[1,1,0,0,1,0,1,0,0],"id":53,"left_children":[1,3,-1,-1,5,-1,7,-1,-1],"loss_changes":[6.095369E-1,3.312352E-1,0E0,0E0,8.164077E-1,0E0,8.540319E-1,0E0,0E0],"parents":[2147483647,0,0,1,1,4,4,6,6],"right_children":[2,4,-1,-1,6,-1,8,-1,-1],"split_conditions":[9.611358E-1,2.0493738E-1,-4.257961E-2,-1.6184388E-2,3.598449E-1,4.5285188E-2,4.5999247E-1,-4.6265908E-2,1.298626E-2],"split_indices":[0,0,0,0,0,0,0,0,0],"split_type":[0,0,0,0,0,0,0,0,0],"sum_hessian":[2.5005632E1,2.3716738E1,1.2888935E0,2.9098463E0,2.0806892E1,5.642718E0,1.5164174E1,1.937875E0,1.3226299E1],"tree_param":{"num_deleted":"0","num_feature":"2","num_nodes":"9","size_leaf_vector":"0"}},{"base_weights":[-1.3490453E-1,-1.903827E-1,3.8267213E-1,-1.7337648E-3,-5.3106546E-1,-1.42179E-1,4.563044E-1,-6.1396414E-1,-2.4954304E-1,-3.415913E-1,-7.4834555E-2],"categories":[],"categories_nodes":[],"categories_segments":[],"categories_sizes":[],"default_left":[1,1,0,1,1,1,0,0,0,0,0],"id":54,"left_children":[1,3,-1,5,7,9,-1,-1,-1,-1,-1],"loss_changes":[6.802411E-1,1.2698646E0,0E0,9.4806755E-1,1.11711025E-2,1.2578328E-1,0E0,0E0,0E0,0E0,0E0],"parents":[2147483647,0,0,1,1,3,3,4,4,5,5],"right_children":[2,4,-1,6,8,10,-1,-1,-1,-1,-1],"split_conditions":[9.715679E-1,8.0793405E-1,3.8267214E-2,7.384255E-1,9.611358E-1,2.0493738E-1,4.563044E-2,-6.1396416E-2,-2.4954304E-2,-3.415913E-2,-7.483456E-3],"split_indices":[0,0,0,0,0,0,0,0,0,0,0],"split_type":[0,0,0,0,0,0,0,0,0,0,0],"sum_hessian":[2.0152838E1,1.877278E1,1.3800576E0,1.2729218E1,6.0435615E0,1.0269836E1,2.459381E0,3.7565227E0,2.2870388E0,1.5646074E0,8.70523E0],"tree_param":{"num_deleted":"0","num_feature":"2","num_nodes":"11","size_leaf_vector":"0"}},{"base_weights":[-6.461047E-2,9.905182E-2,-3.2584593E-1,-3.8867027E-1,1.787074E-1,-4.5832053E-1,-2.2783436E-1,7.484069E-2,4.454152E-1,7.835397E-2,-3.0021894E-1,2.8758398E-1,-2.5929853E-1],"categories":[],"categories_nodes":[],"categories_segments":[],"categories_sizes":[],"default_left":[1,1,1,0,1,0,1,1,0,0,0,0,0],"id":55,"left_children":[1,3,5,-1,7,-1,9,11,-1,-1,-1,-1,-1],"loss_changes":[9.182778E-1,5.942345E-1,2.245903E-3,0E0,3.073021E-1,0E0,1.722458E-1,7.8911805E-1,0E0,0E0,0E0,0E0,0E0],"parents":[2147483647,0,0,1,1,2,2,4,4,6,6,7,7],"right_children":[2,4,6,-1,8,-1,10,12,-1,-1,-1,-1,-1],"split_conditions":[8.0793405E-1,2.152178E-1,8.9886355E-1,-3.8867027E-2,7.8371406E-1,-4.5832053E-2,9.107208E-1,6.391994E-1,4.454152E-2,7.8353975E-3,-3.0021895E-2,2.8758397E-2,-2.5929853E-2],"split_indices":[0,0,0,0,0,0,0,0,0,0,0,0,0],"split_type":[0,0,0,0,0,0,0,0,0,0,0,0,0],"sum_hessian":[1.9723068E1,1.250783E1,7.215239E0,1.2113692E0,1.129646E1,1.5049402E0,5.7102985E0,9.051898E0,2.2445626E0,1.0760626E0,4.6342363E0,5.615739E0,3.4361587E0],"tree_param":{"num_deleted":"0","num_feature":"2","num_nodes":"13","size_leaf_vector":"0"}},{"base_weights":[1.2850719E-2,-1.15243405E-1,1.8791835E-1,1.5324802E-2,-2.9111072E-1,4.0689203E-1,-2.9351243E-1,-1.0193163E-1,3.7417892E-1,-4.2677575E-1,-1.3044253E-1,9.219022E-2,4.9904796E-1,-6.988003E-1,3.3700797E-1,8.206345E-2,-1.9928472E-1,1.3322827E-1,-2.8951544E-1],"categories":[],"categories_nodes":[],"categories_segments":[],"categories_sizes":[],"default_left":[1,1,1,1,1,1,1,1,0,0,1,0,0,0,0,0,0,0,0],"id":56,"left_children":[1,3,5,7,9,11,13,15,-1,-1,17,-1,-1,-1,-1,-1,-1,-1,-1],"loss_changes":[4.94272E-1,2.9815966E-1,1.0982602E0,3.8698712E-1,6.4209074E-2,1.5123916E-1,1.125758E0,1.4236136E-1,0E0,0E0,2.0458376E-1,0E0,0E0,0E0,0E0,0E0,0E0,0E0,0E0],"parents":[2147483647,0,0,1,1,2,2,3,3,4,4,5,5,6,6,7,7,10,10],"right_children":[2,4,6,8,10,12,14,16,-1,-1,18,-1,-1,-1,-1,-1,-1,-1,-1],"split_conditions":[5.5472445E-1,4.2079854E-1,9.381615E-1,3.7817526E-1,4.670831E-1,7.384255E-1,9.715679E-1,1.5747353E-1,3.7417892E-2,-4.2677578E-2,4.8015597E-1,9.2190225E-3,4.9904797E-2,-6.988003E-2,3.3700798E-2,8.206345E-3,-1.9928472E-2,1.3322827E-2,-2.8951544E-2],"split_indices":[0,0,0,0,0,0,0,0,0,0,0,0,0,0,0,0,0,0,0],"split_type":[0,0,0,0,0,0,0,0,0,0,0,0,0,0,0,0,0,0,0],"sum_hessian":[2.0075266E1,1.1790252E1,8.285013E0,7.290481E0,4.4997706E0,5.8012185E0,2.4837952E0,6.0346103E0,1.2558707E0,1.5417185E0,2.958052E0,1.7671114E0,4.034107E0,1.446024E0,1.0377711E0,2.1424615E0,3.892149E0,1.1742116E0,1.7838404E0],"tree_param":{"num_deleted":"0","num_feature":"2","num_nodes":"19","size_leaf_vector":"0"}},{"base_weights":[4.2994756E-2,2.647961E-1,-1.8180225E-2,3.8120843E-2,3.7020534E-1,-2.0109406E-1,4.796178E-2,2.2353195E-2,-4.531566E-1,1.6494778E-1,-1.11231685E-1,-1.7716964E-1,2.1419945E-1,3.0594679E-2,4.5330885E-1,-3.142731E-1,6.710045E-2],"categories":[],"categories_nodes":[],"categories_segments":[],"categories_sizes":[],"default_left":[1,1,1,0,0,1,1,1,0,1,1,0,0,0,0,0,0],"id":57,"left_children":[1,3,5,-1,-1,7,9,11,-1,13,15,-1,-1,-1,-1,-1,-1],"loss_changes":[3.404569E-1,1.1519748E-1,2.5553846E-1,0E0,0E0,3.2498538E-1,3.113765E-1,1.8785675E-1,0E0,3.5310873E-1,2.840418E-1,0E0,0E0,0E0,0E0,0E0,0E0],"parents":[2147483647,0,0,1,1,2,2,5,5,6,6,7,7,9,9,10,10],"right_children":[2,4,6,-1,-1,8,10,12,-1,14,16,-1,-1,-1,-1,-1,-1],"split_conditions":[3.5624555E-1,2.0493738E-1,4.670831E-1,3.8120844E-3,3.7020534E-2,4.2079854E-1,8.3935094E-1,3.7817526E-1,-4.531566E-2,7.454655E-1,9.381615E-1,-1.7716965E-2,2.1419946E-2,3.059468E-3,4.5330886E-2,-3.142731E-2,6.710045E-3],"split_indices":[0,0,0,0,0,0,0,0,0,0,0,0,0,0,0,0,0],"split_type":[0,0,0,0,0,0,0,0,0,0,0,0,0,0,0,0,0],"sum_hessian":[2.373656E1,4.411897E0,1.9324665E1,1.83262E0,2.5792773E0,4.590215E0,1.4734449E1,2.9163027E0,1.6739123E0,8.472294E0,6.262155E0,1.467051E0,1.4492518E0,6.53405E0,1.9382441E0,2.5717635E0,3.6903915E0],"tree_param":{"num_deleted":"0","num_feature":"2","num_nodes":"17","size_leaf_vector":"0"}},{"base_weights":[-4.7832463E-2,5.3958815E-1,-1.5224327E-1,-4.9372748E-2,-6.182028E-1,-2.2065641E-1,2.4715762E-1,-4.196541E-2,-5.8028793E-1,5.572389E-1,7.4941E-2],"categories":[],"categories_nodes":[],"categories_segments":[],"categories_sizes":[],"default_left":[1,0,1,1,0,1,1,0,0,0,0],"id":58,"left_children":[1,-1,3,5,-1,7,9,-1,-1,-1,-1],"loss_changes":[1.5311928E0,0E0,9.6842015E-1,9.768023E-1,0E0,7.49251E-1,3.384571E-1,0E0,0E0,0E0,0E0],"parents":[2147483647,0,0,2,2,3,3,5,5,6,6],"right_children":[2,-1,4,6,-1,8,10,-1,-1,-1,-1],"split_conditions":[8.482331E-2,5.3958815E-2,8.5813206E-1,5.06439E-1,-6.182028E-2,4.1672975E-1,5.164424E-1,-4.196541E-3,-5.8028795E-2,5.5723887E-2,7.4941004E-3],"split_indices":[1,0,1,1,0,1,1,0,0,0,0],"split_type":[0,0,0,0,0,0,0,0,0,0,0],"sum_hessian":[2.2625828E1,2.785655E0,1.9840174E1,1.7158113E1,2.6820605E0,1.10380945E1,6.1200185E0,8.12012E0,2.9179745E0,1.3869991E0,4.7330194E0],"tree_param":{"num_deleted":"0","num_feature":"2","num_nodes":"11","size_leaf_vector":"0"}},{"base_weights":[-4.9121395E-2,4.349296E-1,-9.3176246E-2,2.4513386E-3,-2.5149873E-1,-1.9106728E-1,4.4720632E-1,-5.416484E-1,-2.226832E-2,1.4775544E-2,-3.7799665E-1,1.3616623E-1,-1.7465879E-1],"categories":[],"categories_nodes":[],"categories_segments":[],"categories_sizes":[],"default_left":[1,0,1,1,1,1,0,0,1,0,0,0,0],"id":59,"left_children":[1,-1,3,5,7,9,-1,-1,11,-1,-1,-1,-1],"loss_changes":[5.369784E-1,0E0,3.3614993E-1,1.3598648E0,5.4363954E-1,4.2954946E-1,0E0,0E0,1.6165328E-1,0E0,0E0,0E0,0E0],"parents":[2147483647,0,0,2,2,3,3,4,4,5,5,8,8],"right_children":[2,-1,4,6,8,10,-1,-1,12,-1,-1,-1,-1],"split_conditions":[5.0490852E-2,4.349296E-2,8.0793405E-1,6.6844684E-1,8.9886355E-1,3.416211E-1,4.472063E-2,-5.4164838E-2,9.611358E-1,1.4775544E-3,-3.7799668E-2,1.3616623E-2,-1.746588E-2],"split_indices":[0,0,0,0,0,0,0,0,0,0,0,0,0],"split_type":[0,0,0,0,0,0,0,0,0,0,0,0,0],"sum_hessian":[2.2280567E1,1.1185112E0,2.1162056E1,1.3807046E1,7.3550096E0,1.0018337E1,3.7887087E0,2.644641E0,4.7103686E0,5.206263E0,4.812074E0,2.3615844E0,2.3487842E0],"tree_param":{"num_deleted":"0","num_feature":"2","num_nodes":"13","size_leaf_vector":"0"}},{"base_weights":[6.572493E-2,3.2126987E-1,-1.2571457E-1,5.065722E-1,1.6764504E-1,-4.4035068E-1,-6.335656E-2,-6.580704E-2,3.272992E-1,1.8395068E-1,-1.8897915E-1,-1.2272371E-1,9.470337E-3,-7.685798E-2,5.924968E-1,-4.821015E-1,5.083856E-2],"categories":[],"categories_nodes":[],"categories_segments":[],"categories_sizes":[],"default_left":[1,1,1,0,1,0,1,1,0,1,1,0,0,0,0,0,0],"id":60,"left_children":[1,3,5,-1,7,-1,9,11,-1,13,15,-1,-1,-1,-1,-1,-1],"loss_changes":[1.4238031E0,2.6785636E-1,3.034E-1,0E0,3.297773E-1,0E0,5.0887364E-1,1.912028E-2,0E0,6.472784E-1,7.705858E-1,0E0,0E0,0E0,0E0,0E0,0E0],"parents":[2147483647,0,0,1,1,2,2,4,4,6,6,7,7,9,9,10,10],"right_children":[2,4,6,-1,8,-1,10,12,-1,14,16,-1,-1,-1,-1,-1,-1],"split_conditions":[3.5331202E-1,2.1548748E-1,4.7041702E-1,5.065722E-2,3.1803894E-1,-4.403507E-2,6.306161E-1,2.482635E-1,3.272992E-2,5.7443714E-1,7.796284E-1,-1.2272372E-2,9.470337E-4,-7.6857978E-3,5.924968E-2,-4.821015E-2,5.083856E-3],"split_indices":[1,1,1,0,1,0,1,1,0,1,1,0,0,0,0,0,0],"split_type":[0,0,0,0,0,0,0,0,0,0,0,0,0,0,0,0,0],"sum_hessian":[2.7278318E1,1.1392605E1,1.5885713E1,4.122537E0,7.2700677E0,1.6249821E0,1.4260731E1,3.191361E0,4.0787067E0,4.6473665E0,9.613364E0,1.4583933E0,1.7329676E0,3.3320923E0,1.3152745E0,3.8713002E0,5.7420635E0],"tree_param":{"num_deleted":"0","num_feature":"2","num_nodes":"17","size_leaf_vector":"0"}},{"base_weights":[-5.1255364E-2,2.7020788E-1,-1.8676883E-1,6.3048504E-2,3.6516333E-1,-5.935827E-1,-2.2045095E-2,1.9020176E-1,4.631607E-1,1.4992747E-1,-2.4004216E-1,3.2021374E-1,2.446928E-2,-1.3338256E-1,-3.2452706E-1],"categories":[],"categories_nodes":[],"categories_segments":[],"categories_sizes":[],"default_left":[1,1,1,0,1,0,1,0,0,1,1,0,0,0,0],"id":61,"left_children":[1,3,5,-1,7,-1,9,-1,-1,11,13,-1,-1,-1,-1],"loss_changes":[1.1704229E0,1.3498515E-1,1.2384655E0,0E0,2.765417E-3,0E0,5.733008E-1,0E0,0E0,1.7647997E-1,1.7132133E-2,0E0,0E0,0E0,0E0],"parents":[2147483647,0,0,1,1,2,2,4,4,6,6,9,9,10,10],"right_children":[2,4,6,-1,8,-1,10,-1,-1,12,14,-1,-1,-1,-1],"split_conditions":[3.4624758E-1,2.1238112E-1,5.06439E-1,6.3048503E-3,2.3942062E-1,-5.935827E-2,7.5467443E-1,1.9020176E-2,4.631607E-2,5.931916E-1,9.4926417E-1,3.2021374E-2,2.446928E-3,-1.3338256E-2,-3.2452706E-2],"split_indices":[1,1,1,0,1,0,1,0,0,1,1,0,0,0,0],"split_type":[0,0,0,0,0,0,0,0,0,0,0,0,0,0,0],"sum_hessian":[2.470913E1,7.032581E0,1.767655E1,2.7333508E0,4.2992296E0,4.3442254E0,1.3332324E1,2.5993376E0,1.6998924E0,7.6274586E0,5.7048655E0,2.577129E0,5.0503297E0,3.6613264E0,2.043539E0],"tree_param":{"num_deleted":"0","num_feature":"2","num_nodes":"15","size_leaf_vector":"0"}},{"base_weights":[-3.51793E-2,-4.241156E-1,1.8662901E-1,-2.0150085E-1,-6.2187475E-1,6.608288E-2,3.0223253E-1,-5.340765E-1,2.0583652E-1,2.4947658E-1,-5.10947E-1,4.073204E-1,-9.9265955E-2,-3.193925E-2,3.477061E-1,3.4595203E-1,1.1258396E-1,5.267525E-1,1.6424717E-1],"categories":[],"categories_nodes":[],"categories_segments":[],"categories_sizes":[],"default_left":[1,1,1,1,0,1,1,0,1,1,0,1,0,0,0,0,0,0,0],"id":62,"left_children":[1,3,5,7,-1,9,11,-1,13,15,-1,17,-1,-1,-1,-1,-1,-1,-1],"loss_changes":[1.9628614E0,2.3725784E-1,1.834811E-1,8.351972E-1,0E0,1.0192292E0,3.4307015E-1,0E0,1.1662869E-1,5.4376304E-2,0E0,8.420527E-2,0E0,0E0,0E0,0E0,0E0,0E0,0E0],"parents":[2147483647,0,0,1,1,2,2,3,3,5,5,6,6,8,8,9,9,11,11],"right_children":[2,4,6,8,-1,10,12,-1,14,16,-1,18,-1,-1,-1,-1,-1,-1,-1],"split_conditions":[4.670831E-1,2.6902056E-1,8.7977207E-1,1.5747353E-1,-6.2187474E-2,8.0759037E-1,9.864764E-1,-5.340765E-2,2.0493738E-1,7.06033E-1,-5.10947E-2,9.347061E-1,-9.926596E-3,-3.193925E-3,3.477061E-2,3.4595203E-2,1.1258396E-2,5.2675247E-2,1.6424717E-2],"split_indices":[0,0,0,0,0,0,0,0,0,0,0,0,0,0,0,0,0,0,0],"split_type":[0,0,0,0,0,0,0,0,0,0,0,0,0,0,0,0,0,0,0],"sum_hessian":[2.083522E1,7.235623E0,1.3599598E1,4.3536735E0,2.8819494E0,7.426849E0,6.172749E0,2.2254977E0,2.1281757E0,6.066444E0,1.360405E0,4.8807616E0,1.2919871E0,1.0848382E0,1.0433376E0,2.662712E0,3.4037316E0,2.4901795E0,2.3905823E0],"tree_param":{"num_deleted":"0","num_feature":"2","num_nodes":"19","size_leaf_vector":"0"}},{"base_weights":[6.851612E-2,-2.278169E-2,1.7392224E-1,1.0428777E-1,-4.3290177E-1,3.496567E-1,5.391051E-2,-7.424763E-2,4.096466E-1,9.630804E-2,4.358054E-1,-1.1084859E-1,3.0175355E-1,1.6688335E-1,-4.0950024E-1,3.69613E-2,-3.3394924E-1,4.938059E-1,-4.437765E-2],"categories":[],"categories_nodes":[],"categories_segments":[],"categories_sizes":[],"default_left":[1,1,1,1,0,1,1,1,0,0,0,1,1,0,0,0,0,0,0],"id":63,"left_children":[1,3,5,7,-1,9,11,13,-1,-1,-1,15,17,-1,-1,-1,-1,-1,-1],"loss_changes":[2.2860003E-1,7.4309534E-1,2.1209154E-1,6.31778E-1,0E0,5.1032484E-2,3.4742334E-1,6.994876E-1,0E0,0E0,0E0,1.8876652E-1,2.4387455E-1,0E0,0E0,0E0,0E0,0E0,0E0],"parents":[2147483647,0,0,1,1,2,2,3,3,5,5,6,6,7,7,11,11,12,12],"right_children":[2,4,6,8,-1,10,12,14,-1,-1,-1,16,18,-1,-1,-1,-1,-1,-1],"split_conditions":[4.8015597E-1,4.2079854E-1,7.024518E-1,2.734999E-1,-4.329018E-2,5.0561094E-1,8.9886355E-1,2.1056491E-1,4.096466E-2,9.630804E-3,4.3580543E-2,8.0793405E-1,9.4412726E-1,1.6688336E-2,-4.0950026E-2,3.69613E-3,-3.3394925E-2,4.938059E-2,-4.437765E-3],"split_indices":[0,0,0,0,0,0,0,0,0,0,0,0,0,0,0,0,0,0,0],"split_type":[0,0,0,0,0,0,0,0,0,0,0,0,0,0,0,0,0,0,0],"sum_hessian":[2.2342993E1,1.23928E1,9.950192E0,1.0030665E1,2.362135E0,3.2612252E0,6.6889677E0,6.807404E0,3.2232616E0,1.36498E0,1.8962452E0,4.349974E0,2.3389935E0,4.2516294E0,2.555775E0,3.1183298E0,1.2316442E0,1.2299225E0,1.109071E0],"tree_param":{"num_deleted":"0","num_feature":"2","num_nodes":"19","size_leaf_vector":"0"}},{"base_weights":[1.05336584E-1,4.5950654E-1,-1.7023413E-1,6.1491317E-1,2.8451556E-1,-3.050098E-1,6.9340453E-3,-3.6716458E-1,4.7441894E-1,-1.15367785E-1,-3.9956075E-1,5.132165E-1,-2.3681812E-1,-1.7866136E-1,1.3334594E-2,4.980269E-3,-4.9182904E-1],"categories":[],"categories_nodes":[],"categories_segments":[],"categories_sizes":[],"default_left":[1,1,1,0,1,1,1,0,0,1,0,0,1,0,0,0,0],"id":64,"left_children":[1,3,5,-1,7,9,11,-1,-1,13,-1,-1,15,-1,-1,-1,-1],"loss_changes":[2.3577206E0,1.1033869E-1,3.3318532E-1,0E0,1.0151815E0,9.550154E-2,9.8146725E-1,0E0,0E0,3.5237316E-2,0E0,0E0,3.3467275E-1,0E0,0E0,0E0,0E0],"parents":[2147483647,0,0,1,1,2,2,4,4,5,5,6,6,9,9,12,12],"right_children":[2,4,6,-1,8,10,12,-1,-1,14,-1,-1,16,-1,-1,-1,-1],"split_conditions":[4.914605E-1,2.2433037E-1,7.796284E-1,6.1491318E-2,2.482635E-1,5.2887464E-1,8.8511753E-1,-3.6716457E-2,4.7441896E-2,5.164424E-1,-3.9956074E-2,5.132165E-2,9.485546E-1,-1.7866137E-2,1.3334594E-3,4.980269E-4,-4.9182903E-2],"split_indices":[1,1,1,0,1,1,1,0,0,1,0,0,1,0,0,0,0],"split_type":[0,0,0,0,0,0,0,0,0,0,0,0,0,0,0,0,0],"sum_hessian":[2.2355772E1,9.490668E0,1.2865103E1,3.695121E0,5.795547E0,6.8968983E0,5.968205E0,1.0971375E0,4.6984096E0,3.0332448E0,3.8636532E0,1.5803251E0,4.38788E0,1.7730939E0,1.2601509E0,2.7555602E0,1.6323196E0],"tree_param":{"num_deleted":"0","num_feature":"2","num_nodes":"17","size_leaf_vector":"0"}},{"base_weights":[-3.8874723E-2,4.300871E-1,-1.6387321E-1,-3.8975142E-2,5.568129E-1,-3.0905554E-1,1.1909511E-1,-6.097328E-1,-2.1469225E-1,-2.2714534E-3,3.6105606E-1,3.8121006E-1,-3.1146628E-1,3.569265E-1,-1.7884488E-1],"categories":[],"categories_nodes":[],"categories_segments":[],"categories_sizes":[],"default_left":[1,1,1,0,0,1,1,0,1,1,0,0,0,0,0],"id":65,"left_children":[1,3,5,-1,-1,7,9,-1,11,13,-1,-1,-1,-1,-1],"loss_changes":[1.5652335E0,3.5708714E-1,8.9365643E-1,0E0,0E0,2.680962E-1,2.2970708E-1,0E0,8.249957E-1,4.5608014E-1,0E0,0E0,0E0,0E0,0E0],"parents":[2147483647,0,0,1,1,2,2,5,5,6,6,8,8,9,9],"right_children":[2,4,6,-1,-1,8,10,-1,12,14,-1,-1,-1,-1,-1],"split_conditions":[2.1056491E-1,1.0019867E-1,7.454655E-1,-3.8975142E-3,5.568129E-2,2.4539931E-1,9.347061E-1,-6.0973283E-2,3.416211E-1,8.0793405E-1,3.6105607E-2,3.8121007E-2,-3.1146629E-2,3.569265E-2,-1.788449E-2],"split_indices":[0,0,0,0,0,0,0,0,0,0,0,0,0,0,0],"split_type":[0,0,0,0,0,0,0,0,0,0,0,0,0,0,0],"sum_hessian":[2.4499249E1,4.6421967E0,1.9857052E1,1.1346933E0,3.5075033E0,1.3062761E1,6.7942915E0,1.8157009E0,1.124706E1,5.1844206E0,1.6098707E0,1.1606965E0,1.0086364E1,1.3719991E0,3.8124216E0],"tree_param":{"num_deleted":"0","num_feature":"2","num_nodes":"15","size_leaf_vector":"0"}},{"base_weights":[4.4704393E-2,-4.7280587E-2,2.6621398E-1,6.0161956E-2,-1.7853865E-1,3.7197712E-1,1.29398955E-2,-2.9184366E-2,3.5023642E-1,-3.7374663E-1,-8.429433E-2,1.6206097E-2,-1.5143707E-1,2.4327382E-1,-1.8626131E-1],"categories":[],"categories_nodes":[],"categories_segments":[],"categories_sizes":[],"default_left":[1,1,1,1,1,0,0,1,0,0,1,0,0,0,0],"id":66,"left_children":[1,3,5,7,9,-1,-1,11,-1,-1,13,-1,-1,-1,-1],"loss_changes":[4.8403642E-1,2.5328052E-1,1.8108684E-1,2.7470365E-1,1.15547E-1,0E0,0E0,5.0869893E-2,0E0,0E0,2.6849318E-1,0E0,0E0,0E0,0E0],"parents":[2147483647,0,0,1,1,2,2,3,3,4,4,7,7,10,10],"right_children":[2,4,6,8,10,-1,-1,12,-1,-1,14,-1,-1,-1,-1],"split_conditions":[6.644002E-1,4.1672975E-1,9.365899E-1,3.278131E-1,4.7041702E-1,3.7197713E-2,1.2939896E-3,2.763353E-1,3.502364E-2,-3.7374664E-2,5.06439E-1,1.6206097E-3,-1.5143707E-2,2.4327382E-2,-1.8626131E-2],"split_indices":[1,1,1,1,1,0,0,1,0,0,1,0,0,0,0],"split_type":[0,0,0,0,0,0,0,0,0,0,0,0,0,0,0],"sum_hessian":[2.2138E1,1.6198074E1,5.939926E0,9.204937E0,6.993138E0,3.8595617E0,2.0803642E0,7.7249517E0,1.4799851E0,1.3113084E0,5.6818295E0,6.265945E0,1.4590067E0,1.0198284E0,4.662001E0],"tree_param":{"num_deleted":"0","num_feature":"2","num_nodes":"15","size_leaf_vector":"0"}},{"base_weights":[-2.6912032E-2,2.090245E-1,-2.333258E-1,4.0033466E-1,7.590211E-2,-4.945728E-1,-5.2291732E-2,-1.3700488E-1,2.347733E-1,3.8699448E-1,-3.070158E-1,6.414735E-2,3.437001E-1,-5.0163376E-1,1.4093791E-1],"categories":[],"categories_nodes":[],"categories_segments":[],"categories_sizes":[],"default_left":[1,1,1,0,1,0,1,0,1,0,1,0,0,0,0],"id":67,"left_children":[1,3,5,-1,7,-1,9,-1,11,-1,13,-1,-1,-1,-1],"loss_changes":[9.1272044E-1,1.9386917E-1,4.4398814E-1,0E0,2.4953485E-1,0E0,9.0056646E-1,0E0,5.3200647E-2,0E0,5.0483495E-1,0E0,0E0,0E0,0E0],"parents":[2147483647,0,0,1,1,2,2,4,4,6,6,8,8,10,10],"right_children":[2,4,6,-1,8,-1,10,-1,12,-1,14,-1,-1,-1,-1],"split_conditions":[4.7041702E-1,2.0282531E-1,5.164424E-1,4.0033467E-2,3.1803894E-1,-4.9457278E-2,6.306161E-1,-1.3700488E-2,3.7364078E-1,3.8699448E-2,9.331596E-1,6.414735E-3,3.4370013E-2,-5.0163377E-2,1.4093791E-2],"split_indices":[1,1,1,0,1,0,1,0,1,0,1,0,0,0,0],"split_type":[0,0,0,0,0,0,0,0,0,0,0,0,0,0,0],"sum_hessian":[1.674004E1,7.805496E0,8.934543E0,2.3791513E0,5.426345E0,2.948166E0,5.986377E0,2.377644E0,3.048701E0,2.0066042E0,3.9797728E0,1.8070273E0,1.2416737E0,2.6908655E0,1.2889073E0],"tree_param":{"num_deleted":"0","num_feature":"2","num_nodes":"15","size_leaf_vector":"0"}},{"base_weights":[-3.246231E-2,4.1471568E-1,-1.21117964E-1,1.3657925E-1,5.392127E-1,-2.7823806E-1,2.9241452E-2,-5.6331076E-2,-4.680076E-1,4.610908E-1,-6.1121747E-2,-2.7791035E-1,1.1758879E-1,-3.8852897E-1,2.8010042E-2],"categories":[],"categories_nodes":[],"categories_segments":[],"categories_sizes":[],"default_left":[1,1,1,0,0,1,1,1,0,0,1,0,0,0,0],"id":68,"left_children":[1,3,5,-1,-1,7,9,11,-1,-1,13,-1,-1,-1,-1],"loss_changes":[1.0715526E0,8.177596E-2,5.3433335E-1,0E0,0E0,4.3630892E-1,5.0764066E-1,2.7166462E-1,0E0,0E0,3.331548E-1,0E0,0E0,0E0,0E0],"parents":[2147483647,0,0,1,1,2,2,5,5,6,6,7,7,10,10],"right_children":[2,4,6,-1,-1,8,10,12,-1,-1,14,-1,-1,-1,-1],"split_conditions":[2.1238112E-1,1.4318597E-1,5.2887464E-1,1.3657925E-2,5.392127E-2,3.5331202E-1,5.931916E-1,2.482635E-1,-4.680076E-2,4.610908E-2,6.644002E-1,-2.7791036E-2,1.1758879E-2,-3.8852897E-2,2.8010043E-3],"split_indices":[1,1,1,0,0,1,1,1,0,0,1,0,0,0,0],"split_type":[0,0,0,0,0,0,0,0,0,0,0,0,0,0,0],"sum_hessian":[2.4761803E1,3.4884217E0,2.127338E1,1.7270656E0,1.7613561E0,9.986923E0,1.1286457E1,5.2014494E0,4.7854743E0,1.2430816E0,1.0043375E1,2.024391E0,3.1770585E0,1.4303267E0,8.613049E0],"tree_param":{"num_deleted":"0","num_feature":"2","num_nodes":"15","size_leaf_vector":"0"}},{"base_weights":[6.768537E-2,-1.18692875E-1,4.414234E-1,2.3773964E-2,-3.669762E-1,1.6437317E-1,5.5550724E-1,1.4739676E-1,-7.457675E-2,3.0106637E-1,-1.8437866E-2,-2.2817822E-2,3.343568E-1,-3.883286E-1,8.229377E-2],"categories":[],"categories_nodes":[],"categories_segments":[],"categories_sizes":[],"default_left":[1,1,1,1,0,1,0,1,1,0,0,0,0,0,0],"id":69,"left_children":[1,3,5,7,-1,9,-1,11,13,-1,-1,-1,-1,-1,-1],"loss_changes":[1.4254764E0,5.0184906E-1,1.2270391E-1,1.30112E-1,0E0,9.039398E-2,0E0,1.5646416E-1,3.3319396E-1,0E0,0E0,0E0,0E0,0E0,0E0],"parents":[2147483647,0,0,1,1,2,2,3,3,5,5,7,7,8,8],"right_children":[2,4,6,8,-1,10,-1,12,14,-1,-1,-1,-1,-1,-1],"split_conditions":[7.229505E-1,4.2079854E-1,8.9886355E-1,2.1056491E-1,-3.6697622E-2,8.0683124E-1,5.5550724E-2,2.0493738E-1,2.4539931E-1,3.0106638E-2,-1.8437867E-3,-2.2817822E-3,3.3435684E-2,-3.8832862E-2,8.229378E-3],"split_indices":[0,0,0,0,0,0,0,0,0,0,0,0,0,0,0],"split_type":[0,0,0,0,0,0,0,0,0,0,0,0,0,0,0],"sum_hessian":[1.8712158E1,1.2941045E1,5.771113E0,8.797322E0,4.143723E0,2.3952096E0,3.3759034E0,3.676911E0,5.120411E0,1.000348E0,1.3948615E0,2.3842056E0,1.2927055E0,1.2149515E0,3.9054592E0],"tree_param":{"num_deleted":"0","num_feature":"2","num_nodes":"15","size_leaf_vector":"0"}},{"base_weights":[-7.202059E-2,-1.1259121E-1,2.6035133E-1,-3.0037618E-4,-1.927262E-1,-3.5916746E-1,1.1694426E-1,-3.8037863E-1,-3.503753E-2,2.2695774E-1,-3.4383014E-2,3.2747236E-1,-2.4883331E-1],"categories":[],"categories_nodes":[],"categories_segments":[],"categories_sizes":[],"default_left":[1,1,0,1,1,0,1,0,1,0,0,0,0],"id":70,"left_children":[1,3,-1,5,7,-1,9,-1,11,-1,-1,-1,-1],"loss_changes":[3.096759E-1,1.7296132E-1,0E0,4.2105305E-1,3.1864578E-1,0E0,1.3340917E-1,0E0,6.393214E-1,0E0,0E0,0E0,0E0],"parents":[2147483647,0,0,1,1,3,3,4,4,6,6,8,8],"right_children":[2,4,-1,6,8,-1,10,-1,12,-1,-1,-1,-1],"split_conditions":[9.681456E-1,4.2079854E-1,2.6035134E-2,1.4754191E-1,6.391994E-1,-3.5916746E-2,3.416211E-1,-3.8037863E-2,7.454655E-1,2.2695774E-2,-3.4383014E-3,3.2747235E-2,-2.4883332E-2],"split_indices":[0,0,0,0,0,0,0,0,0,0,0,0,0],"split_type":[0,0,0,0,0,0,0,0,0,0,0,0,0],"sum_hessian":[1.9791422E1,1.8227724E1,1.5636979E0,8.008873E0,1.0218852E1,1.4640987E0,6.544774E0,4.021262E0,6.19759E0,3.5003052E0,3.0444689E0,2.101909E0,4.0956807E0],"tree_param":{"num_deleted":"0","num_feature":"2","num_nodes":"13","size_leaf_vector":"0"}},{"base_weights":[2.6196407E-2,1.0840503E-1,-2.8053412E-1,-6.7585275E-2,3.712952E-1,-2.9608485E-1,2.617385E-2,1.8402335E-1,5.869649E-1,1.8482195E-1,-6.8219405E-1,3.2409942E-1,-1.3012667E-1,4.6735537E-1,-3.6052865E-1],"categories":[],"categories_nodes":[],"categories_segments":[],"categories_sizes":[],"default_left":[1,1,0,1,1,1,1,1,0,0,0,0,0,0,0],"id":71,"left_children":[1,3,-1,5,7,9,11,13,-1,-1,-1,-1,-1,-1,-1],"loss_changes":[6.3492364E-1,9.331852E-1,0E0,2.7775428E-1,2.1608973E-1,8.220167E-1,5.010802E-1,1.0559314E0,0E0,0E0,0E0,0E0,0E0,0E0,0E0],"parents":[2147483647,0,0,1,1,3,3,4,4,5,5,6,6,7,7],"right_children":[2,4,-1,6,8,10,12,14,-1,-1,-1,-1,-1,-1,-1],"split_conditions":[8.8511753E-1,5.06439E-1,-2.8053412E-2,7.2723486E-2,7.796284E-1,3.5295073E-2,2.1548748E-1,6.3505346E-1,5.869649E-2,1.8482195E-2,-6.821941E-2,3.2409944E-2,-1.3012667E-2,4.6735536E-2,-3.6052864E-2],"split_indices":[1,1,0,1,1,1,1,1,0,0,0,0,0,0,0],"split_type":[0,0,0,0,0,0,0,0,0,0,0,0,0,0,0],"sum_hessian":[2.2973463E1,1.8627562E1,4.345902E0,1.1602949E1,7.024613E0,2.7479682E0,8.85498E0,4.751779E0,2.2728338E0,1.4559168E0,1.2920516E0,2.6776073E0,6.1773734E0,3.2187932E0,1.5329859E0],"tree_param":{"num_deleted":"0","num_feature":"2","num_nodes":"15","size_leaf_vector":"0"}},{"base_weights":[6.76042E-2,-9.562117E-2,2.4001782E-1,3.1972438E-1,-4.197829E-1,3.1198013E-1,-1.7709154E-1,1.788814E-1,4.578711E-1,-1.9446397E-1,-6.05351E-1,4.1401684E-1,1.9217843E-1,3.6739472E-1,-1.6983841E-1,-5.462982E-1,4.013632E-1,-8.7004885E-2,2.7452508E-1],"categories":[],"categories_nodes":[],"categories_segments":[],"categories_sizes":[],"default_left":[1,1,1,1,1,1,0,1,0,1,0,0,1,0,0,0,0,0,0],"id":72,"left_children":[1,3,5,7,9,11,-1,13,-1,15,-1,-1,17,-1,-1,-1,-1,-1,-1],"loss_changes":[6.6168755E-1,1.8002559E0,3.9510918E-1,3.467834E-2,1.9094944E-1,4.2904794E-2,0E0,3.653289E-1,0E0,1.2270358E0,0E0,0E0,1.7273206E-1,0E0,0E0,0E0,0E0,0E0,0E0],"parents":[2147483647,0,0,1,1,2,2,3,3,4,4,5,5,7,7,9,9,12,12],"right_children":[2,4,6,8,10,12,-1,14,-1,16,-1,-1,18,-1,-1,-1,-1,-1,-1],"split_conditions":[5.02221E-1,2.1548748E-1,9.4926417E-1,2.0282531E-1,4.1672975E-1,7.2949255E-1,-1.7709155E-2,1.4318597E-1,4.578711E-2,3.1803894E-1,-6.05351E-2,4.1401684E-2,7.796284E-1,3.6739472E-2,-1.6983842E-2,-5.462982E-2,4.013632E-2,-8.700489E-3,2.7452508E-2],"split_indices":[1,1,1,1,1,1,0,1,0,1,0,0,1,0,0,0,0,0,0],"split_type":[0,0,0,0,0,0,0,0,0,0,0,0,0,0,0,0,0,0,0],"sum_hessian":[2.1696697E1,1.1374121E1,1.0322576E1,4.9918265E0,6.382294E0,9.018662E0,1.3039135E0,3.6081352E0,1.3836913E0,3.807329E0,2.5749652E0,3.5441828E0,5.4744797E0,2.3072913E0,1.300844E0,2.4460626E0,1.3612665E0,1.234052E0,4.2404275E0],"tree_param":{"num_deleted":"0","num_feature":"2","num_nodes":"19","size_leaf_vector":"0"}},{"base_weights":[-1.4012573E-2,1.8993019E-1,-1.5425068E-1,-7.392117E-2,4.190912E-1,-4.1188383E-1,-4.781741E-3,4.4395786E-2,-1.7551184E-1,-5.0662655E-1,-1.7786722E-1,2.0347859E-1,-2.5555345E-1,6.487177E-3,4.430972E-1,-5.373012E-1,1.007652E-1],"categories":[],"categories_nodes":[],"categories_segments":[],"categories_sizes":[],"default_left":[1,1,1,1,0,1,1,0,0,0,0,1,1,0,0,0,0],"id":73,"left_children":[1,3,5,7,-1,9,11,-1,-1,-1,-1,13,15,-1,-1,-1,-1],"loss_changes":[7.230401E-1,6.556685E-1,5.7275635E-1,7.573244E-2,0E0,3.1119406E-2,5.981167E-1,0E0,0E0,0E0,0E0,2.9305667E-1,5.7492363E-1,0E0,0E0,0E0,0E0],"parents":[2147483647,0,0,1,1,2,2,3,3,5,5,6,6,11,11,12,12],"right_children":[2,4,6,8,-1,10,12,-1,-1,-1,-1,14,16,-1,-1,-1,-1],"split_conditions":[4.816252E-1,3.1803894E-1,5.438276E-1,2.1238112E-1,4.190912E-2,5.164424E-1,8.8511753E-1,4.439579E-3,-1.7551184E-2,-5.0662655E-2,-1.7786723E-2,7.2949255E-1,9.485546E-1,6.4871775E-4,4.430972E-2,-5.373012E-2,1.007652E-2],"split_indices":[1,1,1,1,0,1,1,0,0,0,0,1,1,0,0,0,0],"split_type":[0,0,0,0,0,0,0,0,0,0,0,0,0,0,0,0,0],"sum_hessian":[2.325629E1,9.331507E0,1.3924784E1,4.6523323E0,4.6791744E0,4.4679403E0,9.456843E0,2.4093227E0,2.2430098E0,2.3511498E0,2.1167903E0,5.2693534E0,4.18749E0,3.4555802E0,1.8137732E0,2.0547993E0,2.132691E0],"tree_param":{"num_deleted":"0","num_feature":"2","num_nodes":"17","size_leaf_vector":"0"}},{"base_weights":[8.39877E-5,1.8701473E-1,-4.7209656E-1,3.6955187E-1,5.698088E-2,-1.9407696E-1,-5.378263E-1,-3.747676E-1,2.7494866E-1,-5.148589E-1,-7.859726E-2,4.0529335E-1,3.119763E-2],"categories":[],"categories_nodes":[],"categories_segments":[],"categories_sizes":[],"default_left":[1,1,1,0,1,0,0,1,1,0,0,0,0],"id":74,"left_children":[1,3,5,-1,7,-1,-1,9,11,-1,-1,-1,-1],"loss_changes":[1.8543046E0,3.3616608E-1,4.502058E-3,0E0,1.0414046E0,0E0,0E0,1.1588514E-1,2.162028E-1,0E0,0E0,0E0,0E0],"parents":[2147483647,0,0,1,1,2,2,4,4,7,7,8,8],"right_children":[2,4,6,-1,8,-1,-1,10,12,-1,-1,-1,-1],"split_conditions":[8.297478E-1,3.7364078E-1,9.331596E-1,3.695519E-2,4.507318E-1,-1.9407695E-2,-5.378263E-2,4.1672975E-1,6.306161E-1,-5.1485892E-2,-7.859726E-3,4.0529337E-2,3.119763E-3],"split_indices":[1,1,1,0,1,0,0,1,1,0,0,0,0],"split_type":[0,0,0,0,0,0,0,0,0,0,0,0,0],"sum_hessian":[1.9008093E1,1.4049854E1,4.9582386E0,5.0786495E0,8.971205E0,1.7038885E0,3.2543502E0,2.7683372E0,6.2028675E0,1.378097E0,1.3902402E0,3.6098063E0,2.5930614E0],"tree_param":{"num_deleted":"0","num_feature":"2","num_nodes":"13","size_leaf_vector":"0"}},{"base_weights":[-2.9114584E-2,5.645077E-2,-3.4326607E-1,-7.608073E-2,2.060981E-1,1.3391404E-1,-3.5621956E-1,4.6005753E-1,-3.0190732E-2,-2.8170727E-2,3.4696E-1,-9.438854E-2,-4.2939785E-1,-4.3458596E-1,2.3491645E-1],"categories":[],"categories_nodes":[],"categories_segments":[],"categories_sizes":[],"default_left":[1,1,0,1,1,1,1,0,1,0,0,0,0,0,0],"id":75,"left_children":[1,3,-1,5,7,9,11,-1,13,-1,-1,-1,-1,-1,-1],"loss_changes":[4.7693476E-1,2.980401E-1,0E0,5.348314E-1,4.3132076E-1,1.9830261E-1,3.2681316E-2,0E0,5.890227E-1,0E0,0E0,0E0,0E0,0E0,0E0],"parents":[2147483647,0,0,1,1,3,3,4,4,5,5,6,6,8,8],"right_children":[2,4,-1,6,8,10,12,-1,14,-1,-1,-1,-1,-1,-1],"split_conditions":[8.107996E-1,5.1205635E-1,-3.432661E-2,4.611829E-1,5.931916E-1,1.4318597E-1,4.816252E-1,4.6005752E-2,6.644002E-1,-2.8170727E-3,3.4696E-2,-9.438854E-3,-4.2939786E-2,-4.3458596E-2,2.3491645E-2],"split_indices":[1,1,0,1,1,1,1,0,1,0,0,0,0,0,0],"split_type":[0,0,0,0,0,0,0,0,0,0,0,0,0,0,0],"sum_hessian":[1.6021908E1,1.3236887E1,2.7850199E0,7.2806005E0,5.9562864E0,4.459608E0,2.8209927E0,2.4143589E0,3.5419276E0,3.02555E0,1.4340583E0,1.1163936E0,1.7045991E0,1.1493785E0,2.392549E0],"tree_param":{"num_deleted":"0","num_feature":"2","num_nodes":"15","size_leaf_vector":"0"}},{"base_weights":[-2.7549835E-2,3.1274092E-1,-1.2576185E-1,7.218268E-2,4.648416E-1,-2.521102E-1,1.8034625E-1,-8.9345574E-2,-3.873604E-1,2.340471E-1,1.2737494E-2,-3.548764E-1,1.0117204E-1,9.492501E-2,3.4072018E-1],"categories":[],"categories_nodes":[],"categories_segments":[],"categories_sizes":[],"default_left":[1,1,1,0,0,1,1,1,0,1,0,0,0,0,0],"id":76,"left_children":[1,3,5,-1,-1,7,9,11,-1,13,-1,-1,-1,-1,-1],"loss_changes":[7.751569E-1,1.5736824E-1,7.3387015E-1,0E0,0E0,2.5192183E-1,4.907222E-2,4.0048784E-1,0E0,3.1803727E-2,0E0,0E0,0E0,0E0,0E0],"parents":[2147483647,0,0,1,1,2,2,5,5,6,6,7,7,9,9],"right_children":[2,4,6,-1,-1,8,10,12,-1,14,-1,-1,-1,-1,-1],"split_conditions":[2.0158927E-1,6.3208304E-2,7.796284E-1,7.218268E-3,4.648416E-2,4.816252E-1,9.738467E-1,3.1803894E-1,-3.873604E-2,9.485546E-1,1.2737494E-3,-3.548764E-2,1.0117204E-2,9.492501E-3,3.407202E-2],"split_indices":[1,1,1,0,0,1,1,1,0,1,0,0,0,0,0],"split_type":[0,0,0,0,0,0,0,0,0,0,0,0,0,0,0],"sum_hessian":[2.101711E1,4.2179985E0,1.6799112E1,2.2050786E0,2.01292E0,1.2015875E1,4.7832384E0,6.206889E0,5.808985E0,3.3223786E0,1.4608599E0,2.2325764E0,3.974313E0,2.262072E0,1.0603065E0],"tree_param":{"num_deleted":"0","num_feature":"2","num_nodes":"15","size_leaf_vector":"0"}},{"base_weights":[4.6483982E-2,3.222952E-1,-1.420244E-1,-3.858593E-1,-3.6634855E-2,-5.430694E-2,-5.0739473E-1,4.0004444E-1,-1.6946612E-1,-5.280471E-1,3.848674E-2],"categories":[],"categories_nodes":[],"categories_segments":[],"categories_sizes":[],"default_left":[1,0,1,1,1,0,0,0,1,0,0],"id":77,"left_children":[1,-1,3,5,7,-1,-1,-1,9,-1,-1],"loss_changes":[1.195864E0,0E0,3.413599E-1,1.364423E-1,6.921508E-1,0E0,0E0,0E0,6.88138E-1,0E0,0E0],"parents":[2147483647,0,0,2,2,3,3,4,4,8,8],"right_children":[2,-1,4,6,8,-1,-1,-1,10,-1,-1],"split_conditions":[4.8015597E-1,3.222952E-2,7.384255E-1,5.839719E-1,8.0793405E-1,-5.430694E-3,-5.0739475E-2,4.0004443E-2,9.107208E-1,-5.280471E-2,3.8486742E-3],"split_indices":[0,0,0,0,0,0,0,0,0,0,0],"split_type":[0,0,0,0,0,0,0,0,0,0,0],"sum_hessian":[2.1120213E1,8.286427E0,1.2833786E1,3.06988E0,9.7639065E0,1.2115568E0,1.8583232E0,1.8081119E0,7.9557943E0,2.3552625E0,5.600532E0],"tree_param":{"num_deleted":"0","num_feature":"2","num_nodes":"11","size_leaf_vector":"0"}},{"base_weights":[3.318979E-2,4.434519E-1,-1.2105506E-2,-6.2493578E-2,3.0449086E-1,-6.638072E-3,-1.5459561E-1,-1.0285084E-1,4.3247402E-1,-4.1684994E-1,-3.107731E-2],"categories":[],"categories_nodes":[],"categories_segments":[],"categories_sizes":[],"default_left":[1,0,1,1,0,1,1,0,0,0,0],"id":78,"left_children":[1,-1,3,5,-1,7,9,-1,-1,-1,-1],"loss_changes":[4.6552595E-1,0E0,3.9030692E-1,1.06532395E-1,0E0,6.3848144E-1,2.4126977E-1,0E0,0E0,0E0,0E0],"parents":[2147483647,0,0,2,2,3,3,5,5,6,6],"right_children":[2,-1,4,6,-1,8,10,-1,-1,-1,-1],"split_conditions":[8.482331E-2,4.4345193E-2,9.365899E-1,6.306161E-1,3.0449087E-2,5.438276E-1,6.644002E-1,-1.0285084E-2,4.32474E-2,-4.1684996E-2,-3.107731E-3],"split_indices":[1,0,1,1,0,1,1,0,0,0,0],"split_type":[0,0,0,0,0,0,0,0,0,0,0],"sum_hessian":[2.3762371E1,1.4886532E0,2.2273718E1,1.9907877E1,2.3658414E0,1.3059801E1,6.8480754E0,1.1340735E1,1.7190652E0,1.4322712E0,5.4158044E0],"tree_param":{"num_deleted":"0","num_feature":"2","num_nodes":"11","size_leaf_vector":"0"}},{"base_weights":[-1.9376064E-4,2.544058E-1,-1.4245483E-1,-3.4468614E-3,4.0293095E-1,-9.535582E-2,-3.2395455E-1,2.2482184E-1,-2.0394056E-1,-1.7794298E-1,1.9205146E-1,2.4884446E-2,-2.4138795E-1,3.696079E-1,1.2521162E-3],"categories":[],"categories_nodes":[],"categories_segments":[],"categories_sizes":[],"default_left":[1,1,1,1,0,1,0,0,0,1,1,0,0,0,0],"id":79,"left_children":[1,3,5,7,-1,9,-1,-1,-1,11,13,-1,-1,-1,-1],"loss_changes":[1.0185535E0,3.8746375E-1,1.2332401E-1,2.5985163E-1,0E0,4.077898E-1,0E0,0E0,0E0,1.7002705E-1,1.3485706E-1,0E0,0E0,0E0,0E0],"parents":[2147483647,0,0,1,1,2,2,3,3,5,5,9,9,10,10],"right_children":[2,4,6,8,-1,10,-1,-1,-1,12,14,-1,-1,-1,-1],"split_conditions":[3.7364078E-1,2.1548748E-1,9.365899E-1,1.336708E-1,4.0293094E-2,7.796284E-1,-3.2395456E-2,2.2482185E-2,-2.0394055E-2,4.816252E-1,8.8511753E-1,2.4884446E-3,-2.4138795E-2,3.696079E-2,1.2521162E-4],"split_indices":[1,1,1,1,0,1,0,0,0,1,1,0,0,0,0],"split_type":[0,0,0,0,0,0,0,0,0,0,0,0,0,0,0],"sum_hessian":[2.6121008E1,9.080915E0,1.7040092E1,3.675945E0,5.40497E0,1.474036E1,2.2997327E0,1.6621693E0,2.0137758E0,1.174599E1,2.9943697E0,2.9435441E0,8.802446E0,1.0655873E0,1.9287825E0],"tree_param":{"num_deleted":"0","num_feature":"2","num_nodes":"15","size_leaf_vector":"0"}},{"base_weights":[-1.327249E-1,-2.2070697E-1,1.4418164E-1,4.356902E-2,-3.819697E-1,2.7486932E-1,-6.305794E-3,-4.1726258E-1,2.4246229E-1,-5.2298224E-1,-9.366181E-2,-9.895992E-2,9.034661E-2,3.1045914E-1,1.05508186E-1,1.8990101E-1,-4.2160147E-1],"categories":[],"categories_nodes":[],"categories_segments":[],"categories_sizes":[],"default_left":[1,1,1,1,1,0,1,0,1,0,1,0,0,0,0,0,0],"id":80,"left_children":[1,3,5,7,9,-1,11,-1,13,-1,15,-1,-1,-1,-1,-1,-1],"loss_changes":[4.966364E-1,6.505268E-1,1.041024E-1,7.000682E-1,3.3071518E-1,0E0,3.9360635E-2,0E0,1.5638292E-2,0E0,4.786035E-1,0E0,0E0,0E0,0E0,0E0,0E0],"parents":[2147483647,0,0,1,1,2,2,3,3,4,4,6,6,8,8,10,10],"right_children":[2,4,6,8,10,-1,12,-1,14,-1,16,-1,-1,-1,-1,-1,-1],"split_conditions":[7.6741207E-1,3.7817526E-1,8.998745E-1,1.3382104E-1,6.6844684E-1,2.7486933E-2,9.71601E-1,-4.1726258E-2,2.1056491E-1,-5.2298225E-2,7.229505E-1,-9.895992E-3,9.034662E-3,3.1045914E-2,1.0550818E-2,1.8990101E-2,-4.216015E-2],"split_indices":[0,0,0,0,0,0,0,0,0,0,0,0,0,0,0,0,0],"split_type":[0,0,0,0,0,0,0,0,0,0,0,0,0,0,0,0,0],"sum_hessian":[1.807885E1,